1.223491936000238069e-02
9.907518768000474207e-02
-2.547659695999805740e-02
-3.533312815999780504e-02
4.174110208000086919e-02
-2.212451695999986118e-02
6.232229695999809416e-02
-1.891250367999870730e-02
-5.467818655999912708e-02
7.805040799998842413e-03
2.814819504000041009e-02
3.982494352000028742e-02
-1.463864159999955609e-02
-2.348266687999916308e-02
3.142128144000107953e-02
6.380326592000019892e-02
-5.419878447999926935e-02
3.207887008000048779e-02
3.139584080000049765e-02
-7.531822480000133213e-02
-5.742064703999960606e-02
8.102381775999868696e-02
3.553117440000009251e-03
-1.973919967999974295e-02
-1.816323279999941878e-02
2.149588000000049806e-02
9.366199200000030825e-03
5.088376879999943064e-02
2.376260160000034580e-02
8.371908271999722873e-02
-6.217333120000020918e-02
6.722565759999848956e-02
2.064899088000046734e-02
-1.552545935999962053e-02
1.577776047999978476e-02
-4.209720799999969176e-02
-1.407866212799999128e-01
-5.451419263999928572e-02
-2.226403759999975168e-02
-1.004094635199990898e-01
-2.213425519999968200e-02
-1.252946735999956734e-02
-5.733875007999971601e-02
2.944307823999977453e-02
8.236175055999943317e-02
-4.378436591999984584e-02
-6.507078399999893792e-02
-6.310133743999987721e-02
5.690609119999878208e-03
8.633167984000013340e-02
5.669832591999949406e-02
-1.416562960000005041e-02
4.339504079999990938e-02
-2.898166575999981676e-02
3.047137903999998579e-02
2.744558879999935141e-03
6.378135936000034478e-02
-2.508508287999966502e-02
8.874527519999978950e-03
-1.027892619200002078e-01
3.378058335999941514e-02
-8.781286399999932435e-02
3.173737599999986586e-02
1.548787520000300668e-03
4.715524831999969718e-02
3.527340480000072578e-03
-1.282142463999982884e-02
-2.375625424000037123e-02
9.521393599999981860e-02
6.729104800000336450e-03
1.222891168000002533e-02
-2.178145408000011288e-02
-6.240985647999976876e-02
6.794018528000057844e-02
-2.180279023999962332e-02
-5.055254511999990319e-02
-1.374570432000029804e-02
-3.365500111999970845e-02
2.503201391999990144e-02
2.816050652799987342e-01
4.170341423999990998e-02
6.045295248000009253e-02
-1.933584031999980440e-02
1.998163775999998309e-02
3.827744256000016609e-02
-1.942543839999490889e-03
-3.414984655999948882e-02
4.884636800001323359e-04
9.589140672000029397e-02
3.224008975999979182e-02
3.396369535999994860e-02
-9.201695167999916769e-02
4.334996752000005310e-02
1.983659280000018427e-02
6.856511200000058211e-03
2.189608783999994618e-02
5.367229599999813125e-03
2.173902784000003585e-02
-1.324604779200011517e-01
5.522628639999926231e-02
4.270123952000006579e-02
4.612041423999985179e-02
-8.182220879999968499e-02
-1.906605728000037442e-02
9.327554223999931504e-02
2.845351776000058092e-02
-6.300569120000263854e-03
-1.215721583999993666e-02
-5.346531151999976000e-02
4.646297903999956069e-02
-2.958659888000011312e-02
-7.560849567999972098e-02
2.510542272000032549e-02
-9.263912000000037311e-03
3.519312735999971520e-02
8.435824320000192764e-03
2.660043151999983563e-02
3.546042240000152248e-03
-2.759114079999782851e-03
9.871976768000034763e-02
-3.645022527999989409e-02
1.524878559999996372e-02
-8.756377760000034344e-03
-2.670300847999912755e-02
-8.558530015999990526e-02
1.746175327999998500e-02
-3.110273631999972005e-02
6.585951023999957188e-02
2.052204191999969229e-02
-2.713369120000019667e-03
3.809499296000012913e-02
2.492948064000004293e-02
3.595929519999990776e-02
8.752423680000259720e-03
1.109794545600002319e-01
-2.768641535999950484e-02
4.350515040000196842e-03
-1.118172127999986741e-02
3.396306512000015626e-02
-1.989894159999981010e-02
-2.281937759999906265e-03
2.136664896000010222e-02
3.489772831999989749e-02
-6.834154415999989240e-02
-2.407070448000004498e-02
-1.836130575999967568e-02
-1.692912655999975410e-02
1.207083839999758407e-03
3.404941872000009917e-02
1.034843782400001189e-01
4.850068624000000717e-02
5.964220095999966942e-02
6.849843119999951546e-02
-2.786859247999993669e-02
1.209407728000012026e-02
2.252244992000008300e-02
8.845432000000323820e-04
1.236065824000008237e-02
-9.436495359999979085e-03
6.419201280000058109e-03
-3.083208719999965680e-02
1.962352832000022890e-02
2.616927199999994486e-02
3.791478175999973138e-02
7.558695840000136980e-03
-2.018672799999959161e-02
-3.011574543999972695e-02
-3.514784095999991254e-02
-3.035250351999991408e-02
3.592076032000025843e-02
4.416015311999977461e-02
-3.391087696000070345e-02
4.343836592000009655e-02
-3.585492911999966364e-02
3.668674223999991019e-02
-2.894512047999975995e-02
1.264698287999986917e-02
4.708102416000009560e-02
6.311877040000009320e-02
-5.302336207999989309e-02
-3.300218032000014345e-02
2.844196319999912209e-03
1.361977072000002120e-02
-3.882935999999310907e-04
-1.395175343999991401e-02
5.899530752000020639e-02
4.182505439999687283e-03
-1.209165584000006059e-02
-2.803415343999999046e-02
8.558825119999969103e-03
-1.892222416000011870e-02
-2.670455920000002620e-02
-1.436951647999993274e-02
6.240200800000052749e-03
-2.530714256000017939e-02
1.281757120000030434e-02
4.882599968000026630e-02
-9.147462400000746369e-04
-6.495962079999882677e-03
7.045405280000254997e-03
-3.038628815999988575e-02
-6.749717823999989985e-02
2.094847264000013198e-02
-2.135139088000007762e-02
-1.381439228800013796e-01
2.743875631999996567e-02
6.991671039999919346e-02
4.224946575999984077e-02
4.864083184000018295e-02
-2.732640991999989513e-02
-5.629186399999945925e-03
5.439747488000001852e-02
6.033605536000009179e-02
7.609446400000174221e-03
3.184733488000009854e-02
2.274324799997424953e-04
-5.726271056000063059e-02
-4.622874816000013820e-02
-8.529271968000040616e-02
5.593393679999995177e-02
-3.869770320000012059e-02
-6.408062303999993714e-02
-2.066858528000002637e-02
7.131967552000022248e-02
-4.750637808000002932e-02
-4.720049759999973144e-02
-9.472709807999987741e-02
7.218304960000038704e-03
-4.107216672000030960e-02
2.125118496000009266e-02
-9.737394607999978746e-02
-7.834478224000014646e-02
-1.690726414400023081e-01
4.926390160000031909e-02
-1.165320649599997926e-01
-4.675568991999992652e-02
2.429444928000000503e-02
1.037241134400001541e-01
1.292996635200009126e-01
-2.736821151999979662e-02
-8.108718672000021777e-02
7.784183040000071038e-03
1.258301760000008797e-02
6.657186431999972953e-02
1.282938320000009957e-02
2.901829215999997269e-02
-1.000705351999993803e-01
-8.434016911999976662e-02
2.183325375999985510e-02
4.801675808000004791e-02
5.260487376000000381e-02
1.633475286400001003e-01
-1.519522727999996770e-01
7.538591759999982433e-02
2.296250079999955125e-03
9.154503520000072114e-03
3.063734545599908210e-01
3.204065488000006068e-02
-1.542039360000053028e-03
2.188041536000002313e-02
-2.119462255999988304e-02
-1.810694319999990934e-02
5.077547087999990244e-02
8.979532927999948899e-02
1.976602416000006537e-02
-7.409454879999786796e-03
-3.628132559999983076e-02
2.468076784000001328e-02
6.253027984000035511e-02
-1.143702011200005420e-01
-2.187663311999994351e-02
1.742305839999992723e-02
8.455440000000124731e-03
1.865268339200014114e-01
9.934717775999973854e-02
2.802020287999995585e-02
4.809937152000005184e-02
-5.442237616000003553e-02
-3.424055248000010959e-02
-5.660551983999994458e-02
-3.416923040000011819e-02
-2.418217663999998324e-02
-3.098503887999974615e-02
-2.216094511999981004e-02
-8.526350496000040247e-02
6.841992608000013742e-02
7.022280847999952391e-02
1.580373206400005337e-01
1.070360000000005092e-02
5.364469487999989211e-02
3.187263919999997613e-02
7.800232639999977319e-03
-3.672288191999983908e-02
1.188906575999997342e-02
-6.459342511999988101e-02
-3.575388656000003107e-02
9.370957567999990689e-02
-8.575951679999971322e-03
1.294946868800005979e-01
5.376731968000025147e-02
7.916587263999989854e-02
-1.584551792000004830e-02
-7.639103119999963998e-02
-1.045381281600003265e-01
-5.957322400000005652e-02
1.593582480000006046e-02
5.495796048000001210e-02
1.006843759999999227e-01
3.427551200000010512e-02
1.675363311999999646e-02
5.163800143999994208e-02
-4.883866431999987073e-02
1.225123878399999172e-01
1.050151998399995318e-01
-3.179293151999999789e-02
5.899690624000007710e-02
6.222946527999994454e-02
-8.602525711999983726e-02
2.047435471999996606e-02
3.495350416000003041e-02
-1.117002942400022875e-01
9.871037568000003148e-02
5.186498352000014356e-02
7.871556031999987768e-02
5.362362384000016885e-02
7.412269440000006371e-02
3.895345599999979532e-03
-1.409666744000001859e-01
5.352310992000000600e-02
-9.565434400000006471e-03
-6.397775215999972065e-02
2.590611935999993787e-02
1.448803952000003899e-02
-5.655885551999988159e-02
-9.324564016000073952e-02
2.795439152000002425e-02
7.344527680000034579e-03
-1.163589033600001404e-01
-7.568846512000003413e-02
8.687554224000003378e-02
1.063518487999998846e-01
6.991762079999938422e-03
7.047577103999999593e-02
6.468265487999984298e-02
-1.193985519999996026e-02
3.990656144000025163e-02
-8.254870720000039713e-03
5.465070400000005685e-02
4.667513376000014674e-02
3.954628112000003332e-02
7.786744480000011050e-03
1.626255439999998303e-02
-6.318099055999996938e-02
3.700978303999997998e-02
-2.169547840000039113e-03
6.248301727999998334e-02
-4.937475183999991829e-02
3.999177504000003824e-02
4.140320224000013788e-02
-7.875942272000009681e-02
-3.300895919999997929e-02
-4.931183888000011811e-02
-1.499059295999984054e-02
1.239625601600000127e-01
-5.856124752000008843e-02
5.849576127999994019e-02
3.123020031999995672e-02
-1.325786483199995480e-01
6.810781887999999007e-02
5.991849280000078291e-03
7.670808000001035510e-04
1.697919840000019403e-03
6.391945488000012887e-02
1.237935311999994493e-02
4.684455039999948361e-03
-2.306012783999977084e-02
-2.155133648000005092e-02
-2.085210352000000517e-02
6.272050415999996797e-02
1.158594416000001577e-02
1.364223136000006567e-02
-3.787153824000000918e-02
1.530764486399999458e-01
-4.547675279999996434e-02
-7.621002575999973050e-02
8.574151951999994803e-02
-1.325622255999997501e-02
-3.247796175999993068e-02
-4.043816127999992627e-02
2.855697503999998083e-02
-4.388491439999996774e-02
-1.631798943999999627e-02
5.019524944000003375e-02
8.176682223999971744e-02
-2.941998592000002327e-02
-4.414261759999991291e-02
-7.107934559999989910e-02
5.534429631999998600e-02
1.019474511999996294e-02
2.233743376000006664e-02
-5.889891104000019584e-02
1.550225231999984368e-02
-2.035396863999994893e-02
1.837555247999995978e-02
2.834488000000438043e-04
5.366883807999997535e-02
3.544310415999998159e-02
-7.632669424000003422e-02
-4.892210368000011328e-02
5.777957664000002436e-02
-3.075235279999986165e-02
8.889949039999983649e-02
-1.075596651200007997e-01
1.339860639999999534e-02
4.357057568000024389e-02
1.712292319999970990e-03
-2.924919359999997998e-02
-9.586104000000005010e-03
1.152031984000003416e-02
-8.697117567999970711e-02
5.759140911999996448e-02
4.514205008000017616e-02
-5.225956576000003601e-02
1.505884788799998764e-01
7.808959392000004718e-02
2.932951247999995154e-02
-1.290254336000006517e-02
6.854908079999984249e-02
-3.837066352000027131e-02
-1.295035983999996698e-02
9.845285615999961604e-02
5.973434624000006216e-02
1.270541435199997737e-01
1.302655382400004780e-01
1.544454447999998176e-02
8.316668175999973600e-02
5.081862448000006721e-02
8.610384640000048190e-03
6.242492783999977618e-02
9.750832255999949960e-02
2.864649776000017037e-02
3.569315824000003634e-02
-5.438736320000036456e-03
-1.013233195200001074e-01
-9.860024831999980588e-02
-8.303646368000036637e-02
1.384194865599999436e-01
4.267064640000001186e-02
3.299487423999993008e-02
1.349653750399998076e-01
1.187119008000008490e-02
-1.066907635199997040e-01
-2.669418672000001963e-02
3.267320735999995618e-02
-5.396430224000001857e-02
-1.854694335999999832e-02
1.917059200000006264e-02
6.558050239999922010e-03
-3.197121119999997430e-02
-8.588039039999982929e-03
-8.220898063999999839e-02
9.560349759999945893e-03
4.991643215999971156e-02
1.493633567999998538e-02
-1.070742067200002451e-01
9.600235616000005190e-02
2.109440960000007886e-02
6.407228847999997534e-02
3.496831216000022974e-02
8.051174560000031941e-03
1.713457327999990884e-02
5.957024896000003011e-02
-1.846059384000004744e-01
1.275021119999997926e-02
3.200254303999992833e-02
7.606988048000005997e-02
-4.607585743999989547e-02
-3.226521600001137306e-04
5.845003167999988924e-02
1.039947200001795340e-04
8.651448848000060921e-02
2.280203727999975671e-02
3.100218336000008096e-02
5.689032928000022082e-02
8.109401600000027549e-03
7.815442576000006247e-02
-3.155195199999998035e-02
-3.244372799999042413e-04
-4.368652927999999713e-02
5.999331919999987411e-02
-1.615156510400004297e-01
-7.038718368000003445e-02
7.835412047999984475e-02
-5.536955888000009984e-02
8.143356799999955636e-04
3.776319840000102665e-03
-4.225252735999994458e-02
9.572599455999980522e-02
-4.768436687999978024e-02
-4.401615840000077523e-03
-1.627269953599999319e-01
9.133536640000031528e-03
-1.225497932800003742e-01
4.484284112000001127e-02
8.052116016000009091e-02
-1.099155702399998019e-01
7.006441599999999048e-02
-3.425933711999994136e-02
1.304126726399998937e-01
5.870000048000002107e-02
-4.828457599999982398e-03
3.679915248000004829e-02
6.488488975999999464e-02
-7.873187279999975530e-02
-6.324260719999993952e-02
-1.901980720000003011e-02
-1.921572800000770354e-04
-1.589147503999989788e-02
1.294586496000006172e-02
-1.041785129599998722e-01
1.233234404800000461e-01
-1.181200564799999159e-01
-6.724294543999999318e-02
9.443400736000011342e-02
-2.538057695999986971e-02
-1.087009529599999580e-01
7.098893535999990789e-02
-7.771661071999985682e-02
6.557710240000004520e-02
-3.871398352000012671e-02
4.187440832000009772e-02
-1.536929747200004304e-01
2.263009535999995284e-02
-5.942517855999984722e-02
-1.017350750400000947e-01
2.320047967999989968e-02
-8.399181935999992799e-02
-6.215484543999998807e-02
8.279199999999929324e-03
5.557837392000010424e-02
1.623938352000005997e-02
-5.041552240000009288e-02
-3.996787903999990399e-02
-2.949416128000007312e-02
-2.300465711999999385e-02
-5.179556320000079477e-03
-6.353596431999999905e-02
2.630165536000008547e-02
7.874408159999994605e-02
-6.391117919999989364e-03
5.253105680000007965e-02
-8.511966624000004422e-02
-6.355658911999997884e-02
-2.521167199999987951e-02
7.385233760000068683e-03
-1.810528127999985748e-02
8.512316032000005750e-02
-1.862561428800008356e-01
-1.064002801600001519e-01
5.923335680000080608e-03
3.926747567999998301e-02
-5.923991232000026114e-02
7.338771168000003675e-02
-1.938879200000055919e-03
2.309345680000000206e-02
1.659372160000003454e-02
4.919275952000002478e-02
-7.841887567999990261e-02
4.656230496000012681e-02
-1.075871203199999515e-01
9.886095519999898301e-03
-1.193748815999997985e-02
-7.220864319999869066e-03
3.469991392000004726e-02
-4.113997760000001613e-02
3.264974400000229902e-04
-6.380562623999994076e-02
-1.817786303999999187e-02
-1.261546304000006440e-02
5.731402384000021388e-02
-5.246731168000005885e-02
-8.444136960000018371e-03
-4.697839215999977808e-02
-3.586649695999990367e-02
3.694367215999994070e-02
6.752554399999989576e-02
-1.375717919999927411e-03
-8.047814879999906634e-03
4.951113807999996813e-02
-7.755703263999982888e-02
-1.822641568000006596e-02
-5.422160799999934874e-03
4.151969135999996480e-02
-2.611619696000005292e-02
-3.476056511999999626e-02
-8.565843951999987937e-02
3.209432000000005114e-02
5.059626400000007823e-02
-8.323379871999994628e-02
-4.158833616000020411e-02
-5.071624911999989688e-02
4.686014080000105129e-03
-6.669472799999988204e-03
1.004233529599999619e-01
-2.229489712000004564e-02
8.820527840000090200e-03
-6.768105119999990801e-03
-9.328895280000001899e-02
7.064956800000007919e-02
6.912891967999987286e-02
-6.866766560000001074e-02
5.159519999999751406e-04
1.298336479999951873e-03
-2.187357648000008703e-02
8.928513455999989579e-02
3.526004768000003120e-02
-6.368663503999988373e-02
1.696753360000003916e-02
6.497607679999993675e-03
-3.099811327999999269e-02
-5.774647359999971613e-03
8.333395279999945837e-02
-2.524144960000113992e-03
-3.976101520000007578e-02
9.629749696000028392e-02
-5.395959776000001928e-02
6.138612767999992309e-02
-7.154084255999995645e-02
-3.859794991999990904e-02
5.564133519999986399e-02
3.965772144000013349e-02
4.310256112000003526e-02
8.547623680000027493e-03
-7.717130511999997777e-02
7.569264895999999743e-02
-7.503263839999896496e-03
2.702784672000008506e-02
1.460329033599998827e-01
-4.827076800000004025e-02
-1.327385279999946559e-03
5.976080383999968215e-02
-7.135302480000010883e-02
6.518302719999979900e-03
2.433567039999944524e-03
-2.618741696000005670e-02
7.407245583999970406e-02
-3.294731311999999496e-02
-2.159537696000001991e-02
8.870115840000004914e-03
5.854827023999988750e-02
3.004800751999998215e-02
-4.832763200000003007e-02
1.264542656000003894e-02
1.397758806399997666e-01
9.711205615999965457e-02
1.543032745600000921e-01
2.469044768000007439e-02
-4.497620095999993461e-02
7.798617279999883398e-03
-1.692125892800007692e-01
-5.383148304000015538e-02
-1.034868575999999124e-01
3.731828656000010791e-02
-1.767316880000000673e-02
4.290665840000001258e-02
-3.060438431999988954e-02
7.604638415999989687e-02
-3.133440815999991025e-02
-2.964136639999989664e-03
-5.224762336000000895e-02
1.789820159999995150e-02
-6.840735280000032059e-02
-6.016368144000000528e-02
1.036752720000001793e-01
-8.552849440000001233e-03
-1.161839999999985393e-03
-3.969788892799946955e-01
1.156403446400001145e-01
-9.212125008000014714e-02
-1.135695327999997235e-02
1.095484814400002060e-01
-3.322265648000002902e-02
-3.895507103999987231e-02
-2.703331919999982930e-02
6.896591679999787908e-03
-8.841099888000022999e-02
-1.025246427200001975e-01
-8.578094544000017252e-02
7.272045583999986462e-02
-3.596120191999997023e-02
4.054556239999995704e-02
-6.852432832000003582e-02
9.800739104000012747e-02
-2.875973920000075238e-03
1.430267855999998484e-02
2.048107839999988022e-02
-1.869164943999999592e-02
1.086313686399997397e-01
6.673978079999975943e-03
1.446512495999998649e-01
9.010762527999988114e-02
3.143064912000005651e-02
4.644246880000037561e-03
9.621375343999992447e-02
1.517849600000008639e-02
1.965042671999998880e-02
2.160729727999998254e-02
1.223078808000000184e-01
-4.243384863999989653e-02
-1.298377664000005538e-02
1.055556815999995901e-02
7.055174592000011680e-02
3.272389279999991102e-02
-8.560247120000002985e-02
-3.065845776000016010e-02
2.200605775999997515e-02
-2.613703264000004703e-02
1.463482560000003291e-02
-8.205755407999998363e-02
1.226483408000002620e-02
-2.447126959999992857e-02
-5.525273599999996205e-02
4.128039039999978170e-03
3.460603952000006200e-02
-1.984127760000003668e-02
1.486257679999996445e-02
2.816694607999990080e-02
5.658660816000000982e-02
-1.192670491199999405e-01
-2.812941456000000312e-02
1.305194975999998674e-01
-1.399913051200000480e-01
5.842290271999998202e-02
-6.429833615999999696e-02
1.575641110400004818e-01
2.555804960000101610e-03
-1.443472166400001644e-01
3.364463360000009839e-02
1.069960015999998383e-02
3.298219920000004801e-02
3.224755856000004195e-02
1.280448799999998194e-02
-1.210869452799998441e-01
-4.783941487999975734e-02
-3.854503680000066247e-03
-5.141298495999972740e-02
-1.330330718399992673e-01
1.767218001599997201e-01
-2.401718991999995945e-02
-2.419068047999995558e-02
-7.352548927999989770e-02
4.671089839999999216e-02
1.268866463999995288e-02
5.043614928000000192e-02
3.558829792000000464e-02
-5.268266816000009151e-02
1.844457046399999300e-01
5.847104863999990493e-02
-6.751828800000005126e-02
-1.637788127999998192e-02
5.525637024000001896e-02
-6.927253600000025761e-03
-8.458269232000024951e-02
-1.473546848000011934e-02
7.974686592000002072e-02
1.351100812799989614e-01
1.185822320000001068e-02
-3.195861695999999835e-02
8.721793023999993566e-02
4.892088975999998174e-02
2.654325552000001351e-02
5.623792655999990814e-02
9.866716000000005926e-02
7.789175759999990289e-02
-5.247959343999997889e-02
-5.656228367999995010e-02
1.183960737600001090e-01
-5.806956000000009638e-02
4.915373647999995294e-02
-7.680117823999972615e-02
2.032391939200002551e-01
-7.402705584000006389e-02
1.152883694399999132e-01
-6.115999344000004612e-02
1.725312799999999952e-02
-1.087147281599997045e-01
5.184473600000021228e-03
3.413431199999995835e-02
4.050272640000001506e-03
-1.104670411199998592e-01
2.796329743999996509e-02
-1.460527990399998755e-01
1.340161119999996138e-03
8.758725551999994863e-02
3.858129503999992854e-02
-1.039141366399995436e-01
1.384224032000000090e-02
5.470483231999990342e-02
5.152156847999997402e-02
-1.289109289599993935e-01
3.382337711999993529e-02
-2.530456160000035294e-03
7.966022463999981873e-02
-2.971124176000003447e-02
6.804948736000006326e-02
-1.019030287999995489e-02
4.007450560000130543e-03
-3.900839983999997845e-02
-3.395506255999977685e-02
2.241409503999998096e-02
-3.906140048000018850e-02
-2.133043118399999549e-01
3.184126319999997651e-02
-6.324968959999999890e-03
-6.859295136000008453e-02
-1.430218246399999060e-01
-1.571520577600000745e-01
-1.016180654400000855e-01
7.582135296000001856e-02
1.116443855999999235e-01
-1.622094878399996665e-01
-2.925174319999995776e-02
1.787021070399995581e-01
-1.763419558399997589e-01
-1.949797366399999565e-01
-1.219413931199995332e-01
-3.755328096000001142e-02
8.773332096000006908e-02
3.332924848000003160e-02
9.700258319999983947e-02
3.225176319999954223e-03
-8.638150720000027302e-03
4.662935151999993144e-02
6.652983472000012499e-02
1.566262463999999743e-02
-1.608180736000000902e-02
2.250531040000018981e-03
6.780216128000000897e-02
2.257916992000000289e-02
4.207009567999998867e-02
2.943372752000002202e-02
-1.293896631999998659e-01
-5.981241119999975223e-03
6.284016928000005220e-02
-1.577660880000005331e-02
6.728770543999981757e-02
-3.199092911999999039e-02
3.195660240000009616e-02
5.883370207999987639e-02
-3.384130160000005383e-02
-9.316316671999996801e-02
-2.609363231999996258e-02
-8.733750239999978071e-02
-6.268180880000005784e-02
9.059932847999996319e-02
-5.467342400000015784e-02
-9.445461423999998440e-02
5.641404799999991115e-02
-2.475904319999957214e-03
1.559340895999991768e-02
1.394936812799995873e-01
-7.976063231999987180e-02
1.364719183999993715e-02
5.769550431999992401e-02
4.838333855999996103e-02
-4.125583263999993422e-02
1.231973712000004190e-02
9.201735359999926520e-03
-2.221798015999992479e-02
-1.088732111999993722e-02
4.665398591999993239e-02
1.415162483199998433e-01
9.178288000000055236e-03
-3.997040991999996351e-02
1.497027140800003264e-01
-2.156830272000007098e-02
-6.945448320000015968e-03
-1.088015328000000413e-02
8.180476960000016007e-02
3.724856687999989618e-02
-1.095955247999998335e-02
-1.194478425599998922e-01
3.668883391999989974e-02
4.794502288000010437e-02
2.437317664000008405e-02
-3.305271359999886055e-03
8.172377840000001614e-02
-3.975353472000000415e-02
-7.299281599999977999e-02
5.831387248000010487e-02
5.605188800000373336e-04
-4.785863647999999415e-02
1.244232809600000628e-01
4.669723968000007164e-02
-6.780575360000028542e-03
-7.300059039999987065e-02
4.187921599999874268e-03
5.554337679999997446e-02
-2.485420967999992792e-01
8.119572143999990999e-02
1.046407854399999809e-01
8.014177120000015933e-03
-1.071689696000005382e-01
1.274871060799996347e-01
1.271206961599997687e-01
-3.792632207999999117e-02
-7.497466463999995223e-02
-6.166684991999998172e-02
-5.675935071999985843e-02
5.363789055999998445e-02
2.347464079999998093e-02
-1.200701545600000308e-01
1.625347104000000528e-02
1.878434246400001451e-01
6.707038400000003842e-02
-1.571505308800002221e-01
-8.049357792000000345e-02
-1.154488393599998330e-01
1.590010899199999772e-01
4.734751792000001930e-02
1.279974262399997398e-01
1.176551999999958997e-03
-1.612539638399996533e-01
-4.210963136000001744e-02
-9.491263295999984029e-02
-1.889483999999994057e-02
1.208827438400001397e-01
-5.690997423999989008e-02
-8.764628863999986141e-02
-2.578018463999986326e-02
-1.720479408000002639e-02
6.769971760000000061e-02
7.125459072000019101e-02
7.733820623999967947e-02
7.315902719999985843e-03
2.205240587200003599e-01
-1.625995392000001080e-02
-1.238068799999998172e-02
4.060272080000004030e-02
-2.829209728000000104e-02
-9.094641551999951834e-02
7.734244207999974030e-02
1.633388574399997906e-01
-9.122289871999995914e-02
1.786284736000001358e-02
7.373305791999969216e-02
-4.985486368000002777e-02
-6.064651695999983411e-02
-1.198182020799999081e-01
1.002881431999999712e-01
3.799430879999996825e-03
7.722452944000028630e-02
-1.095231697600000109e-01
-9.514933856000001855e-02
-8.129360192000004148e-02
-3.166773695999998417e-02
-7.717123408000008122e-02
-3.523007200000003412e-03
8.984041695999969712e-02
-3.631567423999996352e-02
3.179787231999994801e-02
-2.219521599999918580e-04
2.948148255999993167e-02
1.512029771199997485e-01
-5.819498543999990919e-02
-1.843388255999999781e-01
-1.094008473600000392e-01
5.740355264000000790e-02
1.307603422399996884e-01
-5.359201519999990532e-02
-1.268020502399999916e-01
9.823875392000003259e-02
1.472611151999999451e-02
2.028371087999999989e-02
-6.925817472000000974e-02
-2.388390464000001573e-02
-3.267844751999997993e-02
-6.164348655999992571e-02
-1.672708393599995902e-01
-1.201745924800000087e-01
-5.142027231999998088e-02
-6.813968735999990922e-02
-1.357067615999995869e-01
8.219065712000013513e-02
-3.946908048000007802e-02
8.133987248000004722e-02
1.344796416000001993e-01
9.206779248000002136e-02
-1.838517792000000581e-02
7.295569663999994237e-02
-8.754095679999993745e-03
-9.290103520000021417e-03
7.488783231999991685e-02
9.287636976000006317e-02
1.266511044799997765e-01
3.993365600000002569e-02
1.134342396799998542e-01
7.148563423999988731e-02
-3.872823887999991138e-02
-6.507902336000015442e-02
-3.360806383999988267e-02
4.459200992000005026e-02
-9.263507423999994828e-02
9.708688479999972101e-03
1.179530335999997258e-02
1.986365907200000891e-01
-1.696543104000003063e-02
-3.909278575999994981e-02
-1.275112233600000089e-01
3.083520319999986763e-03
-1.472081056000000554e-01
4.844697680000002032e-02
2.305880016000001059e-02
2.533501440000006377e-02
3.553266847999993205e-02
-6.721537600000015468e-03
-6.028292784000005566e-02
-8.942699919999994029e-02
3.092724736000004859e-02
3.397225536000000878e-02
2.800678198400019525e-01
-3.087472000000001521e-02
-1.083843067199998927e-01
4.783509232000002220e-02
5.715325583999998627e-02
1.991370367999997781e-02
1.775084473600000989e-01
6.568893664000012567e-02
-9.776140064000007901e-02
5.335382479999975502e-02
2.994947375999999772e-02
-2.175730495999998043e-02
-5.613400031999999512e-02
4.449528159999997096e-03
-5.681063456000001038e-02
-6.050260816000002650e-02
6.241515856000001000e-02
-4.094955215999995096e-02
5.000447359999998787e-02
3.504640000005993308e-06
-9.467553807999985749e-02
8.665832960000029173e-03
5.393157552000008015e-02
6.657848735999999379e-02
-3.084977504000004089e-02
1.190426564799998976e-01
-3.566939935999979827e-02
9.761705599999968841e-03
-2.305621535999981264e-02
-6.415579072000000826e-02
8.225240959999999268e-02
8.089468816000001949e-02
-1.144127360000000981e-02
8.867552800000005897e-02
4.238707136000003511e-02
2.146438416000007524e-02
-7.805413712000010273e-02
8.925096640000036025e-03
-1.744927999999962677e-03
-3.102249775999994102e-02
2.933940848000004403e-02
1.077768652799999255e-01
2.342952399999997243e-02
3.122945824000001452e-02
-1.196333961600001411e-01
1.333796735999997346e-02
-7.146520928000008044e-02
-4.147654543999999138e-02
5.599414480000004801e-02
7.140265600000010419e-03
-8.054574480000005476e-02
1.046277124799999958e-01
3.870126320000007863e-02
-3.053792640000003999e-03
-6.632030399999995496e-02
5.322761536000000099e-02
-6.881797583999994805e-02
-6.943849536000011591e-02
-1.705746416000001459e-02
2.017821280000001161e-02
7.808131103999992051e-02
-6.888497279999983638e-03
-6.697974367999999512e-02
-1.458020873600001655e-01
-2.326813190400006393e-01
-1.987414303999997245e-02
5.790585615999986613e-02
-5.148581631999998853e-02
2.369172047999999406e-02
-2.905091120000002913e-02
-5.501296640000027938e-03
2.965912479999994848e-03
6.993233615999992769e-02
7.601308240000008432e-02
7.022013503999992301e-02
4.743528784000008297e-02
6.863843200000017963e-02
-3.105101055999997389e-02
1.834306494400001208e-01
1.275696076800006962e-01
5.797647343999996067e-02
1.082263379199999848e-01
-3.030087936000003951e-02
-1.760125243200000023e-01
8.408637599999990719e-02
5.166889439999944496e-03
1.260775632000002422e-01
5.046708879999995540e-02
5.466994527999996523e-02
2.028127391999996407e-02
-2.507793455999997312e-02
1.658759360000001404e-01
3.505510416000004459e-02
-1.055943612799998543e-01
8.658781471999958679e-02
4.686815920000000218e-02
2.301686352000002767e-02
-7.271197536000011119e-02
7.400568112000006915e-02
-8.071389631999996428e-02
-6.472920159999989709e-02
8.830791392000016116e-02
-3.359298528000002892e-02
3.202920751999999149e-02
1.638996971199997432e-01
7.969406736000018976e-02
-2.846944880000003286e-02
4.967748816000001899e-02
-2.549719200000015451e-03
-1.079275539200000161e-01
-1.907876624000003768e-02
-1.013920712000001417e-01
1.974812495999998113e-02
-1.365693196800001619e-01
5.540749648000010269e-02
1.749326559999994646e-02
-1.111298324799999820e-01
3.025360251199995520e-01
1.041936078399998411e-01
-4.125303280000015838e-02
-1.429800054399999465e-01
-4.704291343999998654e-02
-1.982536063999998724e-02
-6.432029632000009489e-02
-1.990805600000004894e-02
-1.438178659199996490e-01
-1.904725027200002696e-01
-4.630871680000005035e-03
-8.840899231999994889e-02
-5.888138464000000627e-02
3.189528736000004500e-02
-1.798588174399999851e-01
5.830622304000019490e-02
2.559943616000002198e-01
-3.920720768000007100e-02
-7.561778463999994926e-02
3.520954656000005456e-02
-6.998817728000000793e-02
9.430495680000022113e-03
-1.194903856000000507e-02
6.696021023999998434e-02
-6.932679328000015961e-02
1.483592809599998674e-01
-7.480415840000024207e-03
9.184783231999998909e-02
-1.217199795200000073e-01
-2.576126496000005067e-02
2.110247759999991229e-02
-9.111442560000000690e-02
1.033326900800000392e-01
8.085476384000025996e-02
-2.580847904000002288e-02
1.012422089600000102e-01
-8.367154624000010255e-02
-1.644379903999996367e-02
-7.115916208000010179e-02
-3.368276032000009496e-02
7.328985840000006025e-02
4.749273280000038816e-03
9.203069023999999043e-02
-1.450332312000002510e-01
-3.727821024000001898e-02
5.380619359999994772e-02
-9.766998416000000072e-02
-1.017880799999999752e-02
3.916563008000016610e-02
-5.068492944000000527e-02
-3.581174352000009858e-02
-2.645597423999997838e-02
2.009620096000004283e-02
-3.342299104000008569e-02
8.951066400000000367e-02
9.717389631999986954e-02
1.026697265599999381e-01
-1.538556831999999056e-02
-1.806551248000003856e-02
-3.171886351999995968e-02
1.383420414399995635e-01
9.753923919999998859e-02
-1.140545599999992802e-03
-2.220795215999999545e-02
-2.218581263999994460e-02
-9.823113215999981773e-02
1.175328193599999987e-01
9.248235008000001145e-02
2.659304064000002354e-02
-2.382299104000014378e-02
-1.649088784000003055e-02
-1.020620336000000600e-01
-4.816026303999997732e-02
-4.402116175999996189e-02
-9.724543999996911221e-05
4.641103039999995572e-02
8.899028063999996074e-02
1.411671364799996498e-01
5.948677759999999870e-02
4.976641007999998284e-02
2.091333712000000705e-02
-3.877480320000088482e-03
-7.699318575999998526e-02
-8.316771472000028531e-02
-1.075425532800000916e-01
-4.907265648000000424e-02
7.073080752000002192e-02
1.070647132800000983e-01
-4.710466656000005664e-02
-5.680959999999995319e-02
-7.663141631999999259e-02
7.021136847999993880e-02
9.189863424000004055e-02
1.345290164800000132e-01
1.103125451200000218e-01
-7.197308847999997483e-02
-1.177125052799999211e-01
-2.356534304000001273e-02
1.811605567999995808e-02
9.159283359999999263e-02
-2.382991359999998143e-02
1.350811151999994388e-02
-1.050616720000001857e-02
-9.783303712000007701e-02
1.719693545599997597e-01
6.512543231999998183e-02
8.440913440000048090e-03
3.106049728000006421e-02
2.537922415999999126e-02
-1.760639199999999849e-02
-2.297709291200003279e-01
-3.425249712000005137e-02
-1.003337417599999004e-01
3.983491295999999626e-02
8.512206319999990334e-02
1.448713840000000370e-02
-9.667878415999997532e-02
8.736095359999996104e-03
1.261710959999998161e-01
-9.144138496000013550e-02
-5.071672799999998177e-02
8.132065648000001701e-02
-2.107269855999999164e-02
-1.047279372799999331e-01
1.667591856000000261e-02
-4.906360111999998053e-02
1.588502404800000156e-01
-4.357892831999994609e-02
6.661220272000005493e-02
-4.774355232000005583e-02
-1.098627056000001621e-02
7.423816047999994006e-02
-2.187411151999999609e-02
-1.288290964799998217e-01
1.019259919999998404e-01
-4.387261536000001266e-02
5.176512207999997561e-02
2.149422734400001922e-01
2.095217542399999133e-01
2.370688928000003887e-02
-1.118404587200000633e-01
1.834387439999999453e-02
9.391943407999998883e-02
6.005169712000001797e-02
3.623218432000001321e-02
-2.933637023999997179e-02
3.531779295999998292e-02
-1.685160960000000457e-02
-6.999239680000006805e-03
1.125942447999999339e-02
1.725166383999997971e-02
-1.277540814399999447e-01
2.481923952000010883e-02
-1.656346857600001499e-01
1.103541551999995436e-02
2.628912032000000482e-02
7.562046751999990102e-02
-3.734242191999999350e-02
8.294180224000025081e-02
-7.427799375999999398e-02
-7.982603775999984330e-02
1.034160072000001734e-01
1.575575103999992538e-02
2.768576080000000744e-02
2.134339868800000095e-01
5.184528735999996418e-02
5.409256832000002013e-02
7.519604511999992968e-02
-2.062906624000001438e-02
-1.649097465599999313e-01
1.183688719999999826e-02
2.159599151999997899e-02
9.514602544000003159e-02
-7.927147247999991042e-02
-6.177204703999999991e-02
3.474009919999996449e-02
1.782076028799998990e-01
-5.411460896000000464e-02
2.239348832000001913e-02
2.305175904000005341e-02
-5.786200143999999101e-02
-2.981573504000000624e-02
1.008523299200000389e-01
4.717233567999996879e-02
-6.494288159999999331e-03
-9.624075199999965538e-03
-4.358633391999992834e-02
6.997663263999999439e-02
-1.521816510399999212e-01
1.989691104000002042e-02
7.687358400000070431e-04
1.507341462399999221e-01
9.327998400000024962e-03
9.033944080000004540e-02
1.114632491199999131e-01
-7.958981487999992888e-02
1.905905631999997227e-02
-1.339659459200002456e-01
-4.782159984000006886e-02
5.267918447999998116e-02
5.120828079999992927e-02
7.818127520000006658e-02
-1.483428190399994906e-01
-4.509669775999994301e-02
7.087803328000014114e-02
2.535024800000010986e-03
5.511384080000005653e-02
1.693344095999995552e-02
-5.335690559999997640e-02
5.269002592000001511e-02
-5.847228832000009313e-02
-1.069083376000000245e-02
-4.819687359999997277e-03
-5.529851487999998261e-02
-9.407095039999950267e-03
-7.310263887999998711e-02
-1.811059088000000622e-02
-1.604450527999997517e-02
-8.319635440000011650e-02
9.238475392000017328e-02
-1.016130820800000417e-01
2.225939264000005580e-02
8.148284128000005122e-02
6.670415471999993628e-02
-1.267659871999996489e-02
-1.213273024000001421e-02
-1.583928735999999907e-02
-5.842336128000002321e-02
6.597738304000001774e-02
-5.921465808000003772e-02
5.415271679999994828e-03
3.911872240000001388e-02
2.835144896000003217e-02
-2.710249744000003957e-02
-1.116133526399998577e-01
-6.530834015999992248e-02
-1.799607999999984888e-03
-7.487351215999989151e-02
5.305212751999990178e-02
3.808789408000001764e-02
8.436849760000005027e-02
9.691857071999999962e-02
6.312559200000006365e-02
9.650671407999994456e-02
2.508684735999997667e-02
-4.076522511999999127e-02
-1.836968768000007968e-02
4.977686368000003997e-02
3.104843744000004846e-02
-2.977963359999992454e-02
8.175976127999994014e-02
-7.324851311999999726e-02
3.391704080000002702e-02
-2.496415936000000863e-02
-4.395624063999998415e-02
5.566689728000003001e-02
1.131168071999997943e-01
-1.636827315199998190e-01
1.801727951999997426e-02
2.961329120000003728e-02
-4.391259872000005671e-02
-1.469464336000000093e-01
6.085571280000003080e-02
-1.348352667200000965e-01
1.813643200000008074e-02
-7.758441728000020632e-02
-7.978056671999994576e-02
1.047239123199999594e-01
1.373034339199999676e-01
1.460443952000000691e-02
-9.829556191999989923e-02
-5.675094320000004938e-02
1.078944896000001187e-02
3.872884431999988608e-02
4.021072016000005328e-02
4.514291888000008385e-02
-2.061766368000000557e-02
8.041393440000002557e-02
-2.060706340800000091e-01
5.971983264000006036e-02
-5.435544864000003973e-02
-1.856023888000000663e-02
8.268006080000044403e-03
-9.968136095999997892e-02
-1.670212470399999594e-01
-3.121494528000001017e-02
3.663161375999993141e-02
-3.735842527999999607e-02
-2.587452703999995607e-02
-5.811488895999997184e-02
1.073212175999999768e-01
4.422171904000002374e-02
-1.152191751999999125e-01
6.626268016000003147e-02
3.122524191999998672e-02
8.421928912000009593e-02
1.966819214400001570e-01
-5.699430416000005051e-02
4.122759984000006622e-02
2.921070448000004025e-02
-7.620442528000000160e-02
2.208091491199998813e-01
-5.479089791999988690e-02
1.662946388799998454e-01
3.261437807999997829e-02
-3.802460191999999101e-02
8.989472943999990417e-02
-1.089303694399999939e-01
-1.520174201599999442e-01
-1.605413775999996531e-02
1.749048800000007871e-03
-8.377688095999995255e-02
2.026860832000001306e-02
1.986198975999999006e-02
1.446774495999999036e-02
9.499600735999993995e-02
-1.936358516799998875e-01
-1.089567502400000110e-01
-1.326313449600000360e-01
-6.062089695999999667e-02
-1.067391998400000486e-01
-2.920113351999991114e-01
-1.979887935999994145e-02
9.857980880000004331e-02
-5.053781711999996012e-02
9.143577072000011463e-02
-3.852852896000003025e-02
-3.092253727999997454e-02
-7.282750608000010395e-02
1.768989632000000228e-02
-1.901882384000001813e-02
-1.619093545599999961e-01
-2.346769097599998299e-01
-2.907504080000004876e-02
-2.028521007999999418e-02
-4.439425632000001953e-02
8.434836176000000407e-02
9.508479840000029840e-03
3.539522560000000345e-02
1.137570817599999617e-01
9.006057055999998340e-02
1.611788800000000729e-02
2.253878022400002401e-01
6.462061663999997541e-02
-4.467155839999996381e-02
-6.534041599999995849e-03
-3.815582464000000923e-02
6.475890480000009997e-02
-1.824521792000000781e-02
4.998051344000001284e-02
8.909542239999915236e-03
2.860038431999999131e-02
1.250057768000000513e-01
1.975709599999989768e-02
7.127815263999998097e-02
-2.454302687999999205e-02
7.857516768000008534e-02
-6.508520784000000614e-02
-5.029328896000002241e-02
-3.236969743999997678e-02
9.681895328000006407e-02
5.819334448000008236e-02
1.337253304000000087e-01
5.390451119999983831e-02
-3.361983904000000883e-02
1.989488768000001115e-02
8.251457120000030981e-03
1.631657864000002067e-01
-6.875078368000001050e-02
1.807798431999999358e-02
4.688160143999998281e-02
-7.473192832000004338e-02
-1.255678307200000232e-01
3.607092751999998320e-02
-1.127474838400000928e-01
7.385223679999964111e-03
1.049266880000000179e-01
5.332754415999999692e-02
-1.864931471999997925e-01
-9.644086512000009381e-02
2.318483790400004407e-01
5.102586239999994805e-02
-5.618506399999998596e-02
-2.570144831999999352e-02
-3.144713616000002765e-02
9.444925648000010443e-02
-5.381059088000010593e-02
9.044989824000004841e-02
4.584296080000004742e-02
-7.297304095999995743e-02
-3.254605775999999673e-02
-7.445541455999989122e-02
1.483085744000000109e-02
1.315079233599998620e-01
1.535570899199997508e-01
1.510252094399997802e-01
1.190612239999999239e-01
2.395166512000000691e-02
-2.979396207999997215e-02
3.509643359999996964e-02
-1.651214895999996990e-01
-1.250784993599999562e-01
8.132071839999964816e-03
8.842440944000015679e-02
-1.088223232000000949e-02
-2.120953065600000298e-01
-7.321785759999992205e-02
-7.945825648000008623e-02
-6.690280479999996185e-03
-7.057316784000000620e-02
-5.936396032000004763e-02
-6.290895679999990685e-03
-5.426951247999997618e-02
-3.519035199999996644e-02
1.183845551999999218e-02
4.398076031999999941e-02
1.130301606400000158e-01
8.639127999999867118e-04
-1.584350464000008896e-02
-9.176293487999998000e-02
1.403075631999997075e-01
5.734328000000280499e-04
1.789842367999999045e-02
-2.314016911999995652e-02
-2.261160160000005338e-03
4.845239807999998649e-02
2.774101919999967872e-03
6.881649696000002869e-02
-1.859031216000001444e-02
6.637450352000003051e-02
9.048471680000044759e-03
5.488180880000018830e-02
8.325406879999970935e-03
8.799884127999996197e-02
1.779724652800000195e-01
-7.479668207999999596e-02
7.412700688000002647e-02
-2.754514431999999582e-02
7.510350383999994661e-02
-9.037392015999991257e-02
9.229930703999993102e-02
9.937994880000010703e-03
2.814050400000000368e-02
-4.363299327999997645e-02
-2.158376736000004043e-02
-6.688277776000010888e-02
1.271408806399999258e-01
4.484450544000007088e-02
-1.133215887999995675e-02
4.371047344000002222e-02
2.453007343999998383e-02
-3.525996192000001306e-02
3.944635392000001017e-02
8.010676015999999844e-02
7.764081759999989785e-02
-1.037534724799999697e-01
1.092671222399998615e-01
2.238787787200000046e-01
-3.759008143999998525e-02
3.927039152000001698e-02
3.750808159999999281e-02
8.907741056000019475e-02
1.347678591999997878e-02
7.160240928000007055e-02
9.384430400000000339e-02
2.111740895999999340e-02
1.876137551999996003e-02
1.124143859199999568e-01
-1.065984254399998388e-01
-5.685680159999997006e-03
2.151349631999999179e-02
6.772456256000004837e-02
-4.725052079999997323e-02
1.500329383999998989e-01
9.798938463999988524e-02
6.409152015999995677e-02
8.934008000000179771e-04
-2.363687856000009913e-01
-8.283657759999986381e-03
7.371080639999999518e-03
5.861843983999999452e-02
3.590079183999992513e-02
-7.436583231999997767e-02
-1.636309068799999822e-01
-9.647432032000004265e-02
-1.518227377600000205e-01
-3.223136128000004402e-02
-1.038280332800000649e-01
-1.826849222399999084e-01
-2.234931952000002164e-02
-3.211330320000004013e-02
-1.285186420799999674e-01
5.428997568000010210e-02
-6.772493712000007826e-02
-1.024564992000003352e-02
2.410212927999999186e-02
-7.544171055999998599e-02
-7.025345039999997265e-02
-4.559568751999999031e-02
1.819105791999999638e-02
7.448756160000005733e-02
-4.935918352000001619e-02
-1.182270180799998016e-01
-5.377373536000003285e-02
4.603452079999999225e-02
-5.015292080000001429e-02
-5.752498463999999867e-02
1.060932417600000122e-01
3.735947872000004721e-02
3.166963375999998220e-02
-1.971898718400001138e-01
-1.595428734399999826e-01
-2.727090335999997686e-02
-2.364709664000003847e-02
-9.534518543999992435e-02
1.299785764799998022e-01
3.183771279999993153e-02
-3.848399183999997447e-02
6.123383295999994952e-02
5.165671215999998594e-02
8.868297856000000035e-02
3.370487839999981167e-03
-4.754852112000003406e-02
1.379925385599997389e-01
1.206531692799999445e-01
4.311711519999982499e-03
1.397611182400000929e-01
2.786344000000013504e-03
3.102802352000000319e-02
1.404869305600000562e-01
-7.956458368000002279e-02
-3.896937888000000239e-02
-2.211511216000001945e-02
3.060068016000004609e-02
-5.400275360000002939e-02
-1.049504827199999879e-01
1.219618736000001036e-01
-1.489646523199998629e-01
8.237983296000001010e-02
1.147201708800001108e-01
-1.324451327999999484e-02
-1.127745351999998452e-01
-1.119313615999995536e-02
4.354484607999997009e-02
-1.045225847999999569e-01
-6.611434559999988803e-02
3.154607520000030259e-03
7.063557952000000528e-02
-1.389583134399999531e-01
1.902026400000000894e-02
-3.319408911999999906e-02
-1.713598435199999992e-01
-7.460842592000005435e-02
-3.140478399999958002e-04
7.022519167999996537e-02
6.006113040000003039e-02
1.082915856000003611e-02
4.338507424000005719e-02
-1.204303996800000082e-01
2.516340320000003475e-02
-1.654372668800000445e-01
5.309072816000002387e-02
-3.952396031999999559e-02
2.326093727999998390e-02
-4.029363375999999580e-02
-4.421560783999995553e-02
1.698157583999996764e-02
1.269222739200001338e-01
2.609835247999994778e-02
-7.382176095999988530e-02
8.848737040000007048e-02
-8.088594448000004100e-02
-9.874424672000001180e-02
-9.759355199999993069e-02
1.470536719999997882e-02
6.351028224000006273e-02
3.191547263999999773e-02
8.774331488000004786e-02
5.921071232000003209e-02
-9.682535840000004376e-03
-1.746731137600001371e-01
6.590816160000083704e-03
-8.012717600000002216e-02
-1.339309544000000241e-01
2.755932927999999588e-02
-5.908833920000001148e-03
3.586217696000001953e-02
8.513784991999996665e-02
1.824930352000000630e-02
1.107184257599998639e-01
6.575277568000005568e-02
-5.742225632000003133e-02
2.124500720000003368e-02
5.880000000000000678e-03
-9.887725904000004007e-02
-4.423345663999996014e-02
1.369338740800000731e-01
-1.111027524800002469e-01
-1.011545947200000878e-01
9.222559344000005876e-02
-1.158266876799999151e-01
-6.573924144000006797e-02
6.458394592000003820e-02
-7.759982479999989746e-02
-6.524799840000013521e-03
-2.552045567999997738e-02
-1.531107264000000981e-02
-1.571803542399999865e-01
-2.219072415999995274e-02
-8.068547455999995621e-02
-5.012091344000004639e-02
1.742689616000001052e-02
2.170403152000000002e-02
1.427244815999999944e-02
5.325680191999999230e-02
8.977777487999993866e-02
-1.092254512000000351e-02
4.222698479999999199e-02
-1.264981727999999958e-02
-4.684120943999999648e-02
5.083806528000001795e-02
-1.587460395199997709e-01
-1.006555359999999344e-01
-8.878416000000001820e-03
1.612195216000000819e-02
-5.279345280000017487e-03
8.187598624000011482e-02
4.695019232000005593e-02
6.805468031999996337e-02
3.347352367999997802e-02
-1.011046737599999995e-01
-1.551595807999998911e-02
-5.909919327999998279e-02
4.876818303999998216e-02
3.550831231999995036e-02
4.324303888000002177e-02
-3.257404939199999849e-01
9.056872991999995182e-02
6.588285407999998344e-02
9.914800479999957838e-03
4.133994607999997434e-02
1.492809727999999669e-02
-1.752829663999999621e-02
-7.140576800000022865e-03
2.730986495999999236e-02
-1.025034340799999971e-01
-1.055343280000001563e-02
4.349262496000001060e-02
-1.995119313599998390e-01
-1.977784703999998367e-02
-1.651940367999998605e-01
-1.034239199999978766e-03
5.201020832000002175e-02
-3.242126351999999323e-02
4.048810544000000511e-02
2.958206336000003545e-02
1.584868208000000250e-02
-5.354768144000001534e-02
-6.630930544000004923e-02
3.748203343999996495e-02
1.064647539200000437e-01
-1.202626643199998235e-01
6.134484800000060498e-04
6.859707248000000701e-02
-5.088750559999996419e-03
-6.141560320000013368e-03
1.888360767999997664e-02
6.421069648000005126e-02
-1.034670721600001175e-01
2.235796991999999817e-02
4.167317007999998824e-02
-5.077340656000007418e-02
-1.100493212800000287e-01
-2.346856064000000380e-02
1.043214721599999284e-01
-9.804813712000001735e-02
-4.889486383999998992e-02
-1.639685705599999432e-01
-9.060068959999997840e-02
-5.997604943999994970e-02
-3.995208783999999042e-02
-5.699608112000001392e-02
-1.009839200000001332e-02
-7.916932896000003494e-02
-5.236991231999994084e-02
3.322996783999997844e-02
-1.815421644800000733e-01
-8.621459872000000746e-02
8.380080320000031502e-03
-1.403126835199997591e-01
-1.355286679999999078e-01
1.342185604799998599e-01
1.736656807999999441e-01
1.953094464000000932e-02
4.848516016000003342e-02
-1.600222879999985311e-03
-1.252868863999997105e-02
5.246863199999988840e-03
-2.343362560000002842e-02
1.588356747200000696e-01
-5.972143263999992596e-02
-6.709670560000005612e-02
-1.409731073599995443e-01
2.897868015999999908e-02
8.442297696000003460e-02
5.930968960000002066e-02
-4.486020080000006904e-02
3.432584815999997763e-02
1.373930041599996654e-01
-3.888115391999999448e-02
-8.062085711999995852e-02
5.978513008000001933e-02
-3.094103359999990713e-03
-1.339384847999997886e-02
2.861012895999999819e-02
7.625188224000012394e-02
-1.851593440000004476e-02
-2.935985487999997340e-02
8.698708911999998572e-02
7.095666671999993624e-02
-8.549281280000009878e-03
-9.921072959999995000e-02
-1.054322067199998936e-01
8.940244112000005072e-02
-5.365675184000001652e-02
-2.141676831999989733e-02
2.020057456000002444e-02
-1.680176752000004173e-02
-1.782454495999999389e-02
1.040305263999999758e-01
-6.835306624000006548e-02
4.823956192000002086e-02
1.082907263999999779e-02
2.039435856000001990e-02
-1.296574424000000725e-01
4.686603168000005176e-02
3.476362240000003406e-02
9.690468384000000546e-02
1.438775920000002345e-02
1.844716783999998666e-02
1.288995716800001301e-01
-6.339033760000004070e-02
-2.735154400000004357e-02
-5.613742623999999626e-02
2.304130160000004979e-02
-1.768593616000000215e-02
-1.713131152000001156e-02
4.216272159999998569e-03
-4.610109456000010403e-02
6.016775295999998024e-02
7.177064480000040943e-03
-9.980943520000009131e-03
1.818477863999999888e-01
4.088758400000009306e-03
1.064206659199999905e-01
1.366574495999998973e-02
-1.368906463999998088e-02
-5.058435391999999142e-02
2.594528943999999115e-02
-1.200999672000000323e-01
5.813874607999999777e-02
-1.088005785600001385e-01
-8.408198719999999265e-03
-6.583729680000008355e-02
-2.277996831999997557e-02
1.281285227200000820e-01
-9.981545824000004341e-02
7.490377040000009701e-02
4.983837775999998970e-02
-1.029472329599999403e-01
9.590297823999992255e-02
-2.403365320000000749e-01
8.375277184000012864e-02
1.870120016000000052e-02
4.344934496000001090e-02
-3.311467248000000974e-02
-9.826384032000004543e-02
-1.180154899199999941e-01
8.276188815999992177e-02
3.227777696000008051e-02
1.642932367999999921e-01
-4.738678559999999484e-02
9.933818399999991972e-03
1.201956832000001738e-02
-6.229913039999996488e-02
-4.342656895999994632e-02
5.802075039999983648e-03
4.734787279999996823e-02
3.520836000000005656e-02
-1.113876031999998760e-02
-8.623658415999996274e-02
-7.818305631999998562e-02
-6.548455312000001083e-02
-1.286425068799999238e-01
-4.758731328000002231e-02
8.144836159999996328e-02
-6.597501680000003588e-02
1.474728943999998459e-02
-1.194575137599999809e-01
2.078178691199998041e-01
-3.614932752000005883e-02
4.579529552000014686e-02
-4.488785040000000531e-02
1.964459569599998345e-01
5.150203968000002103e-02
4.097415119999994748e-02
-4.521564143999996788e-02
-6.104333872000002048e-02
1.131011396799998930e-01
-8.213372863999988949e-02
3.387727311999997465e-02
-1.211582480000000274e-02
-1.859690335999998612e-02
-5.026105280000019160e-03
-3.342221504000007781e-02
1.594178480000001119e-02
1.778231200000018842e-03
-3.199131168000007158e-02
4.224370207999998683e-02
-1.186529289600000148e-01
-6.199348848000008766e-02
2.885916848000001297e-02
2.567311839999997930e-02
-1.554972895999999147e-02
-2.247181462399999163e-01
3.547315840000005160e-02
-1.100518884800000402e-01
-2.234941718399998667e-01
-1.307159057599999730e-01
4.140561280000005021e-03
2.792421599999993058e-03
-6.516363168000002815e-02
1.642868847999996718e-02
-8.678258640000008350e-02
8.192504063999997421e-02
1.057594420799999879e-01
-2.933362159999994279e-02
7.932742240000019429e-03
5.305859279999998457e-02
9.685936319999997879e-03
-1.322013142400000341e-01
9.101052895999998948e-02
-2.851107263999998892e-02
-7.935013679999981806e-02
-9.177209744000004721e-02
2.484957652799997252e-01
-7.247709615999996247e-02
5.403880160000001237e-02
7.648954560000013891e-02
-4.356557584000003702e-02
3.574182448000001039e-02
7.929069824000010980e-02
-2.816154575999998272e-02
5.199348848000005796e-02
-5.692865840000001926e-02
-4.022502479999999492e-02
1.340840729600001890e-01
8.380080959999995638e-02
-1.632339920000004316e-02
-6.183486367999996985e-02
-9.120952960000023799e-03
7.966493888000013290e-02
-3.585768335999998252e-02
5.752360144000000924e-02
-9.873155376000002093e-02
-1.192041583999999335e-02
-1.492120907199996349e-01
4.139364160000000292e-02
5.635333600000046357e-03
-1.780301648000001333e-02
-1.664207920000002408e-02
1.844786755200001349e-01
-1.580906838399998571e-01
7.183687312000001934e-02
1.000996110400000638e-01
-1.077426419200000068e-01
1.788328987199999942e-01
-7.169828976000004739e-02
-7.641288272000004711e-02
1.059954502400000387e-01
8.838463392000002472e-02
8.220192799999997968e-03
1.655055374399999335e-01
1.312798248000000001e-01
1.627073615999999334e-02
2.542905712000000096e-02
1.394655713600000402e-01
-2.094852832000002052e-02
-2.920527840000024418e-03
5.079703280000003734e-02
-1.557678102399999154e-01
1.187931867200000685e-01
-2.764084752000003919e-02
-6.148792976000004573e-02
-2.165013289600001001e-01
-4.622222480000002381e-02
-9.964238576000003511e-02
6.397600000004085956e-05
-6.889688896000012441e-02
-1.537850283199999890e-01
-1.380451951999999149e-01
-6.182750591999996298e-02
-2.019584064000001095e-02
-6.826581648000001890e-02
-2.573427104000002713e-02
-2.246246320000003932e-02
-6.281860864000013422e-02
-6.058574496000004167e-02
-8.047340272000018391e-02
4.867646671999992930e-02
5.319992064000004378e-02
2.240752831999999473e-02
-4.969807936000007753e-02
-7.762015839999996357e-03
7.403390576000000445e-02
-4.153104255999996719e-02
4.608228640000007481e-02
5.399646527999998891e-02
2.629197081600004871e-01
-1.632031999999996154e-03
-1.353143279999996333e-02
-6.393388048000007984e-02
-5.084260063999996443e-02
3.058198400000002384e-02
-1.915135087999999403e-02
1.289233086399999562e-01
7.594759999999996236e-02
4.324876000000003190e-02
1.758272745599999132e-01
9.392704319999983092e-03
1.956071520000011131e-03
2.456046352000001640e-02
-1.034745115199999926e-01
2.010409727999997592e-02
1.144896863999996482e-02
7.839068783999990353e-02
-6.153944064000001213e-02
-1.972755550399998281e-01
-1.377707535999998789e-01
-4.294239343999998321e-02
1.181710323199999246e-01
-1.855405367999999888e-01
-2.462082384000000360e-02
9.073388847999992735e-02
2.610116975999999048e-02
-1.491485583999999608e-02
-1.053032412800000289e-01
-2.841365743999999666e-02
9.316541648000005449e-02
1.925660896000000108e-02
7.950322528000001998e-02
-1.175662721600001931e-01
-1.579690336000000306e-02
-9.853416639999999435e-03
1.495168907199998232e-01
-8.505344079999996310e-02
2.056024000000013056e-03
6.152219296000004112e-02
8.758984672000000304e-02
3.159948015999999860e-02
-1.449738503999998818e-01
3.445225056000000147e-02
-1.635625631999999136e-02
-5.247415120000002015e-02
-6.357029008000002201e-02
-2.087900880000000126e-02
4.269945632000003710e-02
-1.027813547200000510e-01
-1.846557599999998356e-02
1.041728670400000195e-01
4.352772912000001798e-02
-1.945415476800000099e-01
8.304073824000005044e-02
-1.789269942399998314e-01
7.515859456000023586e-02
3.666155248000003974e-02
7.418268015999994469e-02
-1.020511614399999822e-01
8.937365104000019600e-02
5.474180831999999469e-02
8.146048096000002570e-02
6.056440143999996389e-02
-1.723030120000001164e-01
2.193695519999990830e-03
-3.552732112000002440e-02
-3.128447904000001417e-02
1.168443473600000310e-01
-1.259136639999996468e-03
-1.268235214400000865e-01
-5.811386415999999361e-02
-2.524804079999996148e-02
8.232853712000007262e-02
-9.252201744000003447e-02
1.135025392000000855e-01
-1.528147072000003541e-02
2.636934480000000663e-02
5.476881567999999922e-02
-5.471371151999995103e-02
-6.425327328000007832e-02
1.742469798400000380e-01
-6.242970528000000435e-02
-2.204664800000005753e-03
8.981745008000008301e-02
-1.475928735999998929e-02
7.198023839999997085e-03
-1.451841310399999418e-01
1.126653860799999018e-01
-1.290918323199998774e-01
4.031093679999998847e-02
-6.640475231999996841e-02
-7.160191999998929795e-05
-7.931877136000027584e-02
7.226714960000003851e-02
2.487355200000000016e-02
7.387648896000001408e-02
-8.279528911999996243e-02
2.171362527999998876e-02
7.773699296000000092e-02
-3.817347263999997659e-02
4.007426464000000965e-02
2.132710559999993760e-03
-1.961944672000003054e-02
-6.840223247999997758e-02
-7.032502448000002571e-02
5.737284944000003994e-02
4.830401600000003293e-02
4.521813743999997942e-02
4.647364944000000053e-02
-1.156144972799999920e-01
5.352987423999999717e-02
1.150999316800001421e-01
1.655040284799999539e-01
-8.375063824000000823e-02
-3.214581487999997739e-02
-1.736970351999996692e-02
-1.540831232000001300e-02
-1.478582358399997132e-01
-6.700232208000005130e-02
-8.936246495999994321e-02
7.922249119999993927e-02
7.339931920000002108e-02
4.711427248000002455e-02
-3.261927135999997951e-02
-4.906522368000004741e-02
8.905548975999998118e-02
-3.858418479999994877e-02
-3.176025647999998480e-02
5.462881440000009678e-03
-1.099825632000000532e-02
6.466141648000008069e-02
4.707121759999995103e-02
-1.659222479999998556e-02
1.042798977600000038e-01
-1.006221590400000060e-01
-1.686180985599999294e-01
5.683314400000003680e-02
-9.009624224000006842e-02
2.639105664000000392e-02
5.397863247999997588e-02
-9.111152176000003600e-02
-6.022379295999998744e-02
-8.438670624000010889e-02
-2.026800767999999489e-02
-4.444680927999999920e-02
2.591744047999999107e-02
1.258883777599998366e-01
-6.305783199999999769e-03
1.023081068800000548e-01
-5.186276976000000344e-02
-2.391855865600001074e-01
-1.140743456000000225e-02
-7.851711216000002713e-02
2.646399984000002287e-02
3.902800767999995563e-02
1.339485782399996716e-01
-7.172009680000004939e-02
-1.937271184000000090e-02
1.364905679999999823e-02
5.404836016000000992e-02
1.892075215999999838e-02
-2.990406415999999346e-02
-5.393780079999997007e-02
4.879567184000004054e-02
-5.908045568000000469e-02
3.726695152000002176e-02
-5.357737440000004750e-03
-1.732992745599998274e-01
1.292289387199999362e-01
1.346494351999996501e-02
5.122155376000001731e-02
-7.283724144000007505e-02
-5.458462239999969413e-03
-3.627720175999999547e-02
9.299308208000006681e-02
-1.629891273599999579e-01
5.053161919999995047e-03
1.173891156800000724e-01
2.576475216000000124e-02
-3.037561759999996697e-02
-3.423404160000000085e-02
-2.611153616000001093e-02
1.058762264000000647e-01
1.887964751999997998e-02
-1.496742899199998977e-01
7.673570496000001184e-02
-1.378372351999999079e-01
7.450063840000032030e-03
1.122521567999999574e-02
1.470032847999999670e-01
-1.864696063999998765e-02
-3.485788015999999323e-02
-3.122312640000010370e-03
1.073865131200000128e-01
4.519510575999997892e-02
6.359632016000003885e-02
-1.276103487999999050e-02
5.335324943999999320e-02
1.063810319999999171e-02
4.129757775999998159e-02
-1.046233707200000945e-01
1.789332720000001015e-02
2.893208752000002437e-02
-6.158216799999991810e-03
2.153811136000003540e-02
-4.041568160000004288e-03
6.732264832000002530e-02
5.301308848000001878e-02
-4.456105632000001426e-02
-5.289157567999999005e-02
6.464415840000011654e-03
5.387529711999998472e-02
1.811820880000001091e-02
8.606795680000032395e-03
-1.546119948799998811e-01
5.119628975999999942e-02
8.703860256000005291e-02
-3.978808144000003238e-02
-6.605327328000003273e-02
-5.440540048000003237e-02
1.252689463999999142e-01
-1.549746359999996936e-01
4.056515375999999312e-02
-2.574324800000079867e-04
8.364748207999996021e-02
-4.721305664000002844e-02
2.195198367999999511e-02
-2.821995407999998429e-02
-8.745552160000008221e-03
-4.115508015999999603e-02
-7.412759343999994477e-02
-6.996806399999995311e-03
2.670847376000000037e-02
-7.789138447999997827e-02
-1.197936654399999468e-01
-1.246521552000000657e-02
9.949145024000008442e-02
-1.290869847999998599e-01
-7.199824847999992949e-02
7.917265823999994345e-02
6.028231167999995727e-02
5.220913568000000449e-02
5.324438400000000571e-02
-6.360007312000004465e-02
-2.459029007999995534e-02
9.150769904000001509e-02
5.217445744000001606e-02
-5.505448751999997975e-02
1.825152816000001621e-02
-3.951128928000001428e-02
1.416783929600002045e-01
9.293367344000001695e-02
-1.486276831999999021e-02
9.267045119999998970e-02
3.969315200000002319e-02
3.767729551999999399e-02
6.683449711999994713e-02
4.482492943999998036e-02
-1.320956799999767253e-04
2.754057119999999380e-03
7.467112016000004848e-02
-8.083372896000001750e-02
-7.619149648000000941e-02
-7.973303359999997855e-03
-8.732834576000005067e-02
-1.790065599999981095e-03
1.102032492799999569e-01
-4.956912975999999693e-02
-1.249305702400000523e-01
2.154039727999998988e-01
1.248400768000001125e-02
3.125599392000000254e-02
-9.426639343999999865e-02
-2.845184079999999588e-02
-6.513760960000011813e-02
-1.032036491200000322e-01
-7.791647311999999603e-02
1.108685687999999558e-01
4.844972895999996587e-02
-5.402917599999999820e-02
-5.722837600000007380e-02
3.378591407999998603e-02
-9.124381648000000344e-02
-3.127096064000001174e-02
1.799565584000001675e-02
-8.973569712000001308e-02
-1.082433691200000020e-01
-6.224699264000000537e-02
1.152763248000003050e-02
-2.569709472000003894e-02
-3.223148848000001454e-02
-5.164296896000000053e-02
-3.791257439999981028e-03
-4.437131312000002631e-02
1.292511153599998908e-01
5.692139280000000495e-02
3.789472016000002691e-02
-6.673847312000004417e-02
6.736393599999982232e-03
-1.154722201600000692e-01
-7.151651120000010464e-02
-1.244747464000000164e-01
-9.083477711999995985e-02
9.112976064000000154e-02
2.853126543999999487e-02
1.049090083199999274e-01
2.098792000000003401e-03
-2.639989440000004017e-02
2.239602543999999473e-02
6.012117759999999894e-02
-1.723463280000000000e-02
-4.300877759999984645e-03
-5.213655839999999445e-03
2.243329695999997722e-02
-8.036225631999990848e-02
1.561216720000000585e-02
-1.731808155200000032e-01
-3.439404959999999012e-02
5.504879184000004838e-02
7.881529712000008570e-02
1.050119519999992250e-03
-1.185367374399999008e-01
8.832282527999993360e-02
2.016617536000001737e-02
-1.305917632000000266e-02
5.225064096000003183e-02
-7.600041904000008619e-02
1.233675140799999764e-01
1.483924767999998673e-02
1.272928128000000089e-02
-8.779127487999992263e-02
1.920423871999999907e-02
-2.473996831999996857e-02
-5.805711328000000976e-02
-9.227206240000014603e-03
-1.710495790399999272e-01
6.391604960000003832e-02
6.167026624000004204e-02
-6.717442576000003107e-02
7.452517759999992275e-02
6.001409711999999147e-02
-4.685025808000000541e-02
-8.470337840000007057e-02
4.172217695999998199e-02
-2.462839520000017525e-03
9.390255455999993450e-02
-3.566769743999997910e-02
-7.858008879999993368e-02
6.502599983999994560e-02
-8.039759999999966135e-04
-3.554617663999999622e-02
4.816915200000002062e-02
5.235914608000001580e-02
-1.390140352000000523e-01
-6.193055039999987091e-03
1.771653744000001307e-02
-1.357482527999999064e-02
-2.564676000000002537e-02
3.122485791999999455e-02
2.195962559999998717e-02
8.316935280000001263e-02
-1.936342304000000791e-02
9.904721728000000225e-02
-4.387786447999998674e-02
-7.996376240000004076e-02
-2.350892095999999876e-02
-6.691352816000001313e-02
1.080699219200000338e-01
-8.398019439999994395e-02
1.036422304000001425e-02
7.728336159999993869e-03
1.050528654400000178e-01
2.689096160000022974e-03
4.332811327999997603e-02
-2.934600767999999416e-02
6.470098496000006860e-02
6.893267264000005334e-02
-7.029914592000001405e-02
1.903448751999998675e-02
-2.096271307199999712e-01
3.094840768000000492e-02
5.095239839999987641e-03
3.035092111999998510e-02
7.531463440000019105e-02
-1.473173011200001048e-01
-1.058895295999999833e-02
-6.838871519999996026e-03
7.152519360000004177e-03
4.917721760000003106e-02
7.793293679999997725e-02
-9.745786624000005172e-02
1.941640976000000296e-02
-1.227628030399999098e-01
-5.743772704000005280e-02
-1.025231215999999716e-02
-6.485472016000003170e-02
-1.512369743999997067e-02
-5.373292719999998857e-02
-3.535620880000001770e-02
-8.647668831999998085e-02
6.449034560000005412e-02
-3.980414512000002292e-02
-1.256088736000000872e-02
-6.275692079999997675e-02
-1.418916800000001761e-02
8.448120959999999569e-02
-8.075950560000007272e-02
1.146722756800000464e-01
-4.966382431999997321e-02
-8.700176256000005659e-02
2.401840800000000498e-02
5.903801743999997215e-02
-3.829094480000000411e-02
8.934737840000003817e-02
-2.898646560000002481e-02
3.709919391999999538e-02
5.034793632000006403e-02
1.080180428800000536e-01
-4.934856063999996934e-02
-1.383728923199998573e-01
9.777668192000002478e-02
3.047221711999995725e-02
4.642191200000001308e-03
-9.149042239999993428e-03
5.452440475199977765e-01
2.866428096000000342e-02
7.195352016000002016e-02
-2.620023231999999910e-02
-1.211948271999999799e-01
-9.511682704000010147e-02
6.537698656000004438e-02
3.642935295999999434e-02
3.865552159999992819e-03
1.145475236800000129e-01
-5.652070623999997517e-02
2.146599184000000382e-02
3.815390416000005031e-02
4.869491135999998860e-02
5.330755216000004210e-02
1.735192667199999816e-01
3.631048800000008514e-03
6.714251504000007253e-02
-3.723148064000001561e-02
-1.862357615999999869e-02
2.582649743999999165e-02
6.492391983999998284e-02
-3.351847952000003295e-02
-5.617832000000071678e-04
-6.316423839999999075e-03
7.593609680000000528e-02
-1.093560953599998914e-01
8.750379424000009898e-02
-1.186236816000000791e-02
1.505780895999999508e-02
1.326586675199999121e-01
-4.109581696000002421e-02
-5.863688640000015370e-03
7.015212895999997644e-02
-1.261053940799999884e-01
1.380965775999998951e-02
6.245266623999999600e-02
-1.091333910399999857e-01
5.987817711999999376e-02
3.009540896000000715e-02
6.118020223999998120e-02
2.836639183999999092e-02
4.888236975999998846e-02
-1.521560799999999852e-02
1.904604975999998895e-02
2.146097150400000930e-01
-4.366792991999999402e-02
-4.640036959999996324e-02
1.471954569600000540e-01
-3.290215312000000641e-02
-2.495633439999977998e-03
7.629383440000014893e-02
-9.652536256000004977e-02
-8.845967552000010004e-02
-1.315080975999999638e-02
2.999666448000001123e-02
-7.399745007999998514e-02
1.497345620799995780e-01
-9.544244095999997179e-02
5.227160175999999436e-02
-2.100052111999997639e-02
-1.693683983999998491e-02
8.810367136000002430e-02
7.500660064000001792e-02
2.629187247999999200e-02
2.311821679999997992e-02
1.197432639999958422e-03
2.357675407999999112e-02
1.008996190399999993e-01
4.304662671999996693e-02
5.040303248000005398e-02
-6.631151376000003761e-02
-3.278617535999998195e-02
5.513440639999990164e-03
9.414893711999994252e-02
3.585902464000000761e-02
-5.756125712000001449e-02
-5.611017648000001662e-02
-5.263341840000000660e-02
-7.191528111999999362e-02
-4.418112223999998145e-02
-5.560417680000005747e-02
-1.799507247999999893e-02
5.844835376000002275e-02
-8.732991391999997410e-02
-2.201055920000003635e-02
-8.318973712000006515e-02
2.871729535999997113e-02
4.783726352000006177e-02
2.304332911999999733e-02
-9.353206687999998659e-02
-9.417072976000007145e-02
-3.314855135999996566e-02
1.308919680000031945e-03
-4.841408799999997840e-03
1.942077166400000277e-01
1.185604825600000273e-01
2.739248127999998825e-02
-6.022479200000006166e-02
-5.017031200000034684e-03
-4.051124944000001477e-02
4.555337599999958152e-03
-3.140479983999999725e-02
-5.546736319999999616e-03
-9.389108863999999499e-02
-7.994767264000000873e-02
-3.451400975999999871e-02
5.156375311999998601e-02
6.221270591999997907e-02
4.232876000000004163e-02
-5.497466448000001144e-02
2.768712319999986141e-03
3.092664747199998510e-01
-8.019152176000003684e-02
8.567104480000004019e-03
6.200023392000001549e-02
-3.286100064000000570e-02
-1.370579247999997169e-02
-1.108203382399999687e-01
-3.460814480000001109e-02
2.815230432000000171e-02
5.739596991999997011e-02
-8.057333680000007547e-02
-5.954890512000003688e-02
1.337718192000000861e-02
2.997016720000002243e-02
-5.345126544000001340e-02
1.448834400000000890e-02
-9.232535040000043255e-03
1.435109631999998379e-02
5.827405744000000581e-02
8.468515376000004813e-02
-2.267471856000001507e-02
3.947361776000000294e-02
1.000209366400000299e-01
1.308214527999999530e-02
-3.199738496000004845e-02
1.229538820799999516e-01
-4.579652079999999709e-02
5.160593792000000429e-02
1.365065663999999283e-02
-4.450815279999999902e-02
6.664226416000006148e-02
-9.754333711999997603e-02
5.662533728000004180e-02
2.380258479999999843e-02
2.537522560000000232e-02
6.519273760000007800e-02
-1.443187248000000686e-02
-2.785570851200001030e-01
1.080319139200000000e-01
-6.175390416000003241e-02
3.291825647999999799e-02
1.912899872000000528e-02
5.648497680000001686e-02
-7.524718544000000287e-02
8.465258448000004265e-02
-6.153279519999995534e-03
2.156164768000001786e-02
1.115625648000002045e-02
9.680314752000004908e-02
1.343940287999999261e-01
-1.328332288000000361e-02
1.068557599999999524e-02
1.391944831999998404e-02
-9.529327200000001566e-03
-9.574024992000000622e-02
-4.488475375999999295e-02
2.795981663999999936e-02
1.300186118399999924e-01
-3.732913631999999760e-02
2.676652911999999329e-02
3.825604143999999929e-02
-2.476202368000001569e-02
1.849109615999997014e-02
-4.628704319999997832e-03
-5.252863839999998355e-03
-4.550674416000005662e-02
1.752005584000001365e-02
2.434333638400001665e-01
6.177962544000007578e-02
-5.637380095999998397e-02
-1.239843343999998300e-02
-9.121523519999996665e-02
8.350321727999998611e-02
5.358652911999996216e-02
6.417506591999998233e-02
-6.494623456000001016e-02
-1.443112015999999630e-02
2.813699311999999508e-02
4.510672639999992531e-03
2.537938496000000099e-02
-3.947095279999995876e-02
2.160617664000000562e-02
-8.721266624000001411e-02
-9.543247487999992340e-02
-7.688560000000108953e-04
-1.488224016000000600e-02
5.983764928000000205e-02
1.407002420799998710e-01
1.105488672000001088e-01
1.487925463999999198e-01
6.691846528000008898e-02
-4.100347455999998197e-02
1.887281863999999976e-01
-6.734874576000002278e-02
-1.280078415999999150e-02
8.509623440000003980e-02
-1.052177844799999790e-01
1.029524985599999665e-01
-1.052759875200000583e-01
7.073123520000001996e-02
5.748574512000003550e-02
8.511550560000004373e-02
-2.813113616000001427e-02
-1.308203873600000955e-01
6.722807840000000895e-03
-8.626728319999991956e-03
-1.405388905599999905e-01
9.673553743999994958e-02
-9.346421023999992861e-02
8.932520160000002873e-02
9.266065007999998993e-02
-1.103189761600000124e-01
-1.247601743999998507e-02
1.004804334400000582e-01
-5.234739263999999004e-02
-8.209116127999992185e-02
-7.509961888000003805e-02
-1.679958516799999468e-01
-1.210744748800000742e-01
5.916932912000003736e-02
2.103354400000003246e-02
-7.366692272000005537e-02
1.824550591999999499e-02
-4.846261664000001135e-02
2.439877775999999346e-02
-5.865785648000007568e-02
1.814799184000000926e-02
-1.982472063999998063e-02
4.754928144000002133e-02
-2.890411327999998364e-02
-7.591080480000007673e-03
-2.560200000000001364e-02
7.657788032000004130e-02
1.472800668799998658e-01
6.697800960000002690e-02
3.952322367999999003e-02
8.428617680000004275e-02
6.192512992000000910e-02
-4.719250496000000628e-02
2.713860880000000531e-02
-4.522601568000004374e-02
-4.108115391999999505e-02
9.440120959999993844e-02
-1.432531984000000140e-02
-1.016986816000000349e-01
-1.429266463999999924e-02
6.546302448000002050e-02
-3.769179471999999087e-02
4.272820719999999989e-02
1.422146676799999621e-01
3.141703423999998857e-02
-8.393239311999999008e-02
-7.505096064000006673e-02
-1.157703299199999702e-01
-3.721992159999993645e-03
8.905614320000002082e-02
-2.538426623999999465e-02
-7.435364943999997478e-02
9.725133055999997389e-02
1.510372286399997710e-01
6.640343232000001095e-02
-1.586822512000000268e-02
4.280945119999992124e-03
-1.765887936000000089e-02
-1.714939393599999862e-01
1.713029487999998685e-02
9.681588191999998538e-02
-2.059081561599998278e-01
7.128541648000003006e-02
-1.225990342400000016e-01
3.356380847999997780e-02
1.077158899200000297e-01
-9.177170079999982452e-03
-1.176931217600001300e-01
8.321109808000004548e-02
7.835662624000003240e-02
9.591456800000000213e-03
-2.230347790399999641e-01
-6.385549616000003870e-02
-7.440991392000007032e-02
-6.715474528000005272e-02
-8.462615456000011083e-02
-3.468655295999999166e-02
2.062553119999991236e-03
2.223116768000000382e-02
-1.087616031999999594e-01
-3.616909760000035310e-03
-1.185512155199998086e-01
1.025794342400000447e-01
-6.119012096000001066e-02
1.347497711999999341e-02
2.721685727999998902e-02
-2.610313007999998103e-02
4.232283968000000174e-02
-3.772063263999999444e-02
6.620976864000005513e-02
8.634713791999999721e-02
8.861599999999998992e-03
-1.815588032000000490e-02
-7.417898656000006252e-02
-5.255165744000003109e-02
-8.352713776000002255e-02
-7.599293680000002160e-02
1.319615871999999523e-01
-1.001160588800000251e-01
6.100333871999999436e-02
-9.558341023999999964e-02
3.136756784000002685e-02
-3.551655840000009570e-03
-1.096037942400000381e-01
-1.821504064000000270e-02
1.121570001599999922e-01
3.373192857599999206e-01
8.907251295999998875e-02
9.558574672000001715e-02
-2.820263070399999239e-01
-2.570261648000000260e-02
2.203544079999998628e-02
-3.579942480000000010e-02
-9.134893855999999535e-02
-2.056675200000000064e-02
-3.291747232000000190e-02
-7.587528912000006398e-02
-5.178276975999999976e-02
2.397786447999999959e-02
-1.301117067199998312e-01
-5.078140080000005663e-02
1.699592731200000040e-01
-7.290879839999995886e-03
2.257691920000000352e-02
2.336400799999999167e-02
8.318876959999997600e-02
4.854494512000003675e-02
-2.810323950400006598e-01
-2.388967327999999904e-02
2.693838415999999514e-02
6.029313744000000530e-02
6.881880176000006177e-02
-6.758712992000004416e-02
1.068301526400000229e-01
-3.535834607999999157e-02
7.274041743999988541e-02
-1.021742463999999323e-02
-5.871679999999975062e-04
-8.725035359999998297e-02
-1.776562995199999773e-01
-1.435643343999998961e-02
-2.515423295999998782e-02
9.903911215999997020e-02
-4.167595167999996880e-02
-1.224267471999999912e-01
-1.855143295999998193e-02
-4.616269664000006989e-02
7.554593792000006969e-02
1.131305464000000177e-01
-1.288273647999999688e-02
4.754224032000003985e-02
7.654420063999997637e-02
1.108443633600000172e-01
2.984766559999997571e-02
3.447951423999999487e-02
9.859671359999999662e-02
-2.159199999999584542e-05
3.987901680000000004e-02
1.188503615999999680e-01
1.019925764799999579e-01
5.129168128000000798e-02
-9.075856479999996548e-03
1.045055713600000213e-01
-1.339297545599998085e-01
-3.422876000000001778e-02
-1.549125760000000240e-02
1.786968128000000072e-02
5.801668016000002120e-02
5.687666448000001235e-02
-1.486295311999998731e-02
1.320278100799997800e-01
-4.875945632000001223e-02
3.213671680000002896e-03
-2.059128911999998784e-02
-3.647126543999999748e-02
6.842863872000001790e-02
-7.394783456000013355e-02
4.416601568000001754e-02
-3.694521423999996834e-02
7.609056799999984987e-03
3.830165568000000464e-02
-6.758437760000000905e-02
-2.736191408000000075e-02
7.298214688000011219e-02
3.099746432000000107e-02
1.002569209600000094e-01
6.113213680000006978e-02
-1.602573443200001058e-01
4.103352016000001712e-02
-3.570632031999999845e-02
1.223083156800000432e-01
-2.860400767999999455e-02
3.063047343999999311e-02
1.004020079999999246e-02
-1.563223279999999271e-02
-3.764337696000000233e-02
4.868652127999997803e-02
2.626170544000000495e-02
1.329344063999998368e-02
-5.081440319999993085e-03
2.579318591999998217e-02
-3.503691264000000083e-02
-1.125506448000000367e-02
3.127509776000000213e-02
9.161909775999997618e-02
-1.027374424000000036e-01
-1.113123075200000284e-01
9.174163328000001227e-02
5.206916000000004485e-02
3.329068064000002825e-02
-4.687196784000002836e-02
9.095679519999995064e-03
1.055568971199999373e-01
2.668498480000001255e-02
-1.931955375999998836e-01
6.613583424000003819e-02
3.796064816000003367e-02
1.279552827199999521e-01
1.433796430399998656e-01
-3.584593792000000806e-02
6.303368912000002766e-02
-5.107350416000001891e-02
-1.779511315199999444e-01
5.663064256000000657e-02
-5.284706639999997568e-02
9.954551039999984946e-03
-7.366472208000010569e-02
7.683960960000002505e-02
-7.121345824000004099e-02
-9.460810688000004243e-02
-1.209689527999998626e-01
-1.498535455999999155e-01
-3.115468831999999855e-02
1.284259263999998693e-02
7.452272640000001148e-03
-1.743826199999999882e-01
-2.697982448000000449e-02
1.842169536000000385e-02
4.948772912000003188e-02
9.586063407999990960e-02
4.041881440000003045e-02
7.984996800000000727e-02
7.218054687999994612e-02
3.202016912000001103e-02
6.373255840000013536e-03
1.570042384000000513e-02
-1.764672032000000682e-02
1.827424864000001120e-02
-6.715406544000004918e-02
-7.783560319999978036e-03
-2.701367968000000647e-02
-3.807884128000000451e-02
5.306995200000005908e-02
4.726620048000002017e-02
6.394275392000006719e-02
1.290076815999999758e-02
-2.166951009600000255e-01
1.186028032000000509e-01
-9.833284320000003353e-02
2.527446544000001155e-02
-3.443404944000000301e-02
4.535444143999999705e-02
-5.450180879999996786e-02
-8.632635376000001581e-02
2.346790448000000626e-02
7.165886512000005371e-02
4.477787232000003670e-02
2.935071232000001709e-02
4.043048143999999899e-02
2.252791231999998894e-02
-3.920917568000004128e-02
-6.127953584000002396e-02
-7.811505024000006681e-02
-4.421641759999999505e-02
-4.707074400000002545e-02
9.458260240000004870e-02
-3.740238880000013727e-03
-4.449558592000000395e-02
-2.373805568000001559e-02
1.000919059200000433e-01
-8.432256640000003467e-03
-5.485468847999998288e-02
-1.244987295999998994e-02
-6.184435376000000512e-02
-5.006000160000000088e-02
-2.792180064000000100e-02
-1.044093305599999993e-01
-1.435114399999999450e-02
-1.748802843199998847e-01
1.323702838400000747e-01
-7.489252880000005219e-02
3.185272815999998924e-02
7.711468992000009015e-02
2.037699295999999966e-02
-6.301194576000000713e-02
-1.179599952000000423e-01
4.148776079999999533e-02
1.954518384000000428e-02
1.735264063999999995e-02
-3.023232799999999582e-02
-1.097816030400000087e-01
2.844363967999999354e-02
-1.762932895999999930e-02
5.604805119999999030e-02
1.005842179199999964e-01
6.195686512000003060e-02
2.052816864000001074e-02
6.207014880000001969e-03
5.724517616000003584e-02
-4.670240959999993544e-03
1.712159343999999223e-02
5.266026431999996926e-02
-8.782179424000002843e-02
3.476456895999999880e-02
-4.743576000000002818e-03
9.754337072000000830e-02
1.752793616000000027e-02
6.772356192000009156e-02
3.298135311999998709e-02
6.367905648000002361e-02
-2.298728159999998549e-02
-1.310707551999999443e-01
6.306193808000000456e-02
-2.203706432000000423e-02
9.975804928000003846e-02
2.826135472000000648e-02
9.334636960000003425e-02
1.843991839999996546e-03
-2.810619919999998717e-02
-1.082891457599999968e-01
3.927673599999982439e-03
-5.159025055999998804e-02
-7.015976288000007333e-02
-5.532777648000002102e-02
-7.909590240000015718e-03
1.016698521599999905e-01
-1.029941065599999511e-01
-1.670867264000000865e-02
1.546495151999999033e-02
6.895981824000003979e-02
1.958516015999998972e-02
-4.701762560000000840e-02
-5.844991392000001285e-02
-7.820996944000004059e-02
2.325620095999999387e-02
2.997624063999999172e-02
6.329778671999994333e-02
6.207605728000003403e-02
4.496877599999998809e-02
-2.123170163200000515e-01
2.348873615999999553e-02
-2.849068832000001272e-02
-1.895846352000003093e-02
-1.943562559999998871e-02
-1.089733462399999769e-01
-3.269123360000001505e-02
-5.417250512000001961e-02
-1.217006102399999234e-01
-3.262414527999998870e-02
-6.739323344000000549e-02
2.743207311999999731e-02
6.965066608000008985e-02
3.463284944000004362e-02
-8.787024399999987523e-02
-1.668664190400001301e-01
-6.233127344000000819e-02
1.074834182400000449e-01
-7.924659264000001591e-02
-1.231879535999999831e-01
2.546908063999999902e-02
3.795804927999999606e-02
-3.322872032000000198e-02
3.937445727999997619e-02
3.088879980800005032e-01
-4.567265350399991597e-01
2.826115391999999352e-02
7.674727504000006251e-02
-2.744303872000006250e-02
6.118416000000861943e-05
7.007250512000005871e-02
-1.733540095999999003e-02
-6.650559344000003814e-02
9.370611488000003819e-02
-1.534779548799997673e-01
-2.554752047999999179e-02
-1.475884252799999075e-01
1.716055312000000152e-02
-8.839558736000011074e-02
-8.567805728000003895e-02
1.994058495999999348e-02
1.317239475199999676e-01
1.068021388800000637e-01
-1.992429663999997075e-02
-7.566396176000007856e-02
1.905365584000001666e-02
4.260537280000000621e-03
-3.077513584000001606e-02
1.092250102400000034e-01
-3.555285743999999498e-02
5.118857663999999696e-02
3.823642559999998469e-02
3.211505664000000038e-02
-8.209248128000000422e-02
1.741469879999999470e-01
6.093648111999999673e-02
4.527561759999999824e-02
8.394252912000002564e-02
-3.317426464000002712e-02
6.452952976000000951e-02
-1.115006499199999723e-01
-1.122644411199999609e-01
8.234600928000000708e-02
1.015884988800000027e-01
1.114055311999999527e-02
-1.682197615999997745e-02
1.209172588800000170e-01
2.408905039999998526e-02
-8.699998560000006542e-02
8.258653856000010285e-02
3.176339279999998433e-02
-1.132972736000000674e-02
9.900112783999998056e-02
4.742799839999986902e-03
-2.346872832000001380e-02
3.260673615999999664e-02
-1.511704848000000774e-02
1.195802579199999882e-01
-3.954928928000000371e-02
1.926739904000001474e-02
1.356830447999999786e-02
-5.825091312000001825e-02
-7.076436176000001910e-02
-7.319779455999997353e-02
-8.115030608000001200e-02
2.503823263999999799e-02
-2.773297488000000394e-02
-1.964338495999998560e-02
-9.847203872000002967e-02
4.991976112000000992e-02
-4.691647327999996092e-02
-9.249922575999999785e-02
-7.509430560000007748e-02
-5.464599040000000379e-03
-8.369804160000000881e-02
2.747821823999998039e-02
-1.123132113599999982e-01
-1.110544827199999862e-01
7.935445104000009298e-02
-6.172879679999994720e-03
3.963928319999998964e-03
-9.915369855999997539e-02
1.384417679999998436e-02
-2.939070416000002378e-02
-1.119979953599999911e-01
-2.863094036799997966e-01
2.710616720000001006e-02
-2.658398400000001188e-02
-3.017271215999999673e-02
1.725701679999998989e-02
-1.874083952000001746e-02
-8.250259280000010742e-02
2.705821664000000043e-02
1.189907377599999788e-01
-1.201808492799999045e-01
4.046734495999999154e-02
1.755926368000000626e-02
2.025268047999999321e-02
9.291861040000005956e-02
2.048936863999999136e-02
-1.056985679999999928e-02
1.633662464000000536e-02
9.896732800000092312e-04
-1.382234432000000075e-02
-5.782407839999995601e-03
-7.883167999998938642e-05
1.580612912000000855e-02
-5.999223680000003930e-03
1.666942512000001847e-02
-3.409508831999999434e-02
6.627510576000009146e-02
-3.226991232000002430e-02
6.831555983999995640e-02
-3.140811151999995526e-02
-7.656515392000005915e-02
-1.017410182400000224e-01
-1.035779295999998857e-02
4.160772895999999971e-02
-2.056816159999997999e-03
7.486344320000008941e-03
4.103881759999999934e-02
5.491333680000009404e-02
-1.160476816000000078e-02
9.528302448000000591e-02
1.253077623999999946e-01
-1.449301545599998575e-01
-1.258133067200000454e-01
-2.494210559999998633e-02
4.398313807999999075e-02
2.631343280000000839e-02
6.780117776000005314e-02
-1.379716988800001876e-01
-3.876098495999998755e-02
1.696177696000000790e-02
-4.356929728000001611e-02
5.943136479999991915e-03
-1.281861864000000129e-01
2.925268831999999763e-02
-1.615683968000004161e-02
1.185131457600000215e-01
-9.262314607999994065e-02
9.824991392000002877e-02
-8.379764928000006663e-02
6.007527328000001471e-02
5.991803344000003889e-02
1.823819296000000340e-02
-1.047108047999998834e-02
-2.169201919999999301e-03
2.153311360000001364e-03
-1.334695135999999435e-02
7.941444320000012880e-02
1.214766543999998456e-02
3.776117615999999982e-02
-5.284262560000011280e-03
4.047856271999998590e-02
4.780176896000000453e-02
-8.513064479999998824e-03
6.545460256000003307e-02
2.842678384000003888e-02
-2.556000015999999181e-02
5.182475375999998080e-02
7.031329855999994549e-02
1.068776508800000080e-01
-4.126794416000002103e-02
1.362754416000000468e-02
2.309565583999997895e-02
7.155946432000000190e-02
-1.255168652800000006e-01
-6.091963328000003786e-02
1.263663712000000494e-01
-3.176235232000002018e-02
6.215239999999998613e-03
2.372342432000000556e-02
-4.064588640000000447e-02
-4.506589008000001090e-02
-5.722714431999999934e-02
-1.691317319999999791e-01
-3.342895280000000163e-02
3.339678591999997725e-02
-2.537105679999999974e-02
-1.715584863999999876e-02
-2.199823263999999695e-02
4.325814880000006767e-03
6.474239360000007271e-02
6.295408959999994163e-03
3.382649744000000569e-02
1.055498084800000069e-01
-3.554640640000000448e-03
-1.486435216000002793e-02
-6.309467392000002450e-02
-3.060812895999999450e-02
-8.966000959999993747e-02
2.992915231999995068e-02
-3.112155391999999604e-02
8.604974335999998614e-02
-5.943536480000003418e-03
1.088194184000000481e-01
8.279309808000001603e-02
1.042691614400000355e-01
-8.560540208000000373e-02
5.564493712000001535e-02
1.019170739199999898e-01
-1.284807343999999803e-02
-7.808095472000015080e-02
5.094863679999996238e-03
-2.612234575999999170e-02
-5.229285744000002761e-02
-1.433379292799999982e-01
-1.419352015999999356e-02
-3.959125743999999253e-02
1.581008127999998861e-02
7.036260096000006292e-02
7.642952176000003539e-02
8.119583424000005600e-02
-5.883628031999998953e-02
-2.278141664000000316e-02
6.663944848000004362e-02
-6.822383999999999046e-03
-1.671913239999999190e-01
4.477196800000000226e-02
-1.429781881599997140e-01
-3.702575359999996877e-03
-8.607997136000002103e-02
7.628892112000001946e-02
6.440536096000007427e-02
2.381866448000000136e-02
-2.011601001600000493e-01
6.115601776000000739e-02
-1.403918400000086966e-04
-7.442400160000003928e-02
-8.141344224000002239e-02
-5.282475375999998862e-02
6.575080751999996809e-02
9.191785792000002620e-02
1.790259280000000564e-02
1.910096895999998864e-02
2.125370849599999556e-01
2.760555216000002560e-02
-6.950673776000006188e-02
8.998491488000005811e-02
3.382024047999999949e-02
8.363046704000014209e-02
-7.107469776000002737e-02
4.386492912000001382e-02
5.438617679999998428e-02
-1.775572590399999429e-01
-3.506056096000000760e-02
1.139407715200000809e-01
4.709918576000000218e-02
-2.449524188800001057e-01
-8.362314592000001656e-02
3.470612127999999491e-02
2.194295295999999784e-02
-1.395606367999998633e-02
-1.546716016000000693e-02
-9.118992959999992071e-03
1.387156748799999728e-01
-2.901706464000001345e-02
7.557611296000001089e-02
2.604019280000000047e-02
-9.758578623999994428e-02
3.436992959999999458e-03
-8.317192976000001292e-02
4.745536319999998573e-03
-2.057383263999999767e-02
-9.471880479999998312e-03
-1.551027264000000294e-02
5.758063248000000467e-02
-3.861070608000000126e-02
6.564587471999998314e-02
-5.941383440000003180e-02
4.829186463999998735e-02
1.903459886399999912e-01
-5.017058432000001678e-02
-1.047410182400000389e-01
3.132638399999999358e-04
-5.658613696000000526e-02
-8.632608959999999582e-03
6.393856639999997288e-03
-8.447128287999998431e-02
1.163977288000000165e-01
1.424289743999999740e-02
5.326207040000003647e-03
-1.350438399999999428e-02
4.034932095999997637e-02
1.300705463999998479e-01
1.532579104000001032e-02
6.865336864000004535e-02
2.734425616000000364e-02
1.929609143999999610e-01
-3.959592160000002456e-03
6.295724144000001965e-02
-5.246539264000003866e-02
-5.186041743999999371e-02
3.554536879999999066e-02
2.358869648000001124e-02
7.438033168000005024e-02
1.591052348800000293e-01
-6.909822624000008795e-02
-7.355713984000000760e-02
-6.697801760000006432e-02
1.429511313599998168e-01
-7.173610496000014380e-02
1.239517862400000420e-01
1.264990424000000113e-01
-7.587690496000000506e-02
4.567265791999999131e-02
5.790196176000000222e-02
2.641571089600004418e-01
1.411720908799999341e-01
3.261353119999988934e-03
-1.031504863999998557e-02
2.571887936000002289e-02
4.160690528000000887e-02
-2.999784064000000222e-02
-2.910354591999999435e-02
1.823976096000000033e-02
1.216184334399999650e-01
6.264595376000002547e-02
-9.272529904000012535e-02
-1.776925759999999077e-02
-8.746397776000006119e-02
4.766536879999998255e-02
5.562952191999999407e-02
6.056855679999995426e-03
-1.350111519999997681e-03
-6.415246544000002826e-02
-1.794046038399998988e-01
1.068354740799999786e-01
-7.323854719999991353e-03
7.681608912000001399e-02
-3.823552319999989641e-03
-1.033826579199999957e-01
1.873964768000000239e-02
-4.429722543999998347e-02
-1.254516816000000000e-02
-1.410631315199999403e-01
-1.400550598399999680e-01
8.546201744000005152e-02
1.491803984000000111e-02
-1.919505648000000356e-02
-1.897904048000000066e-02
1.796021663999999504e-02
1.839523343999999172e-02
-7.490021824000003825e-02
-3.301703264000000609e-02
2.764163184000001036e-02
9.711636767999996811e-02
-1.272162120000000785e-01
2.345146464000000264e-02
1.507801599999999617e-02
-1.248899300799999335e-01
-5.078008160000003005e-03
2.360516816000001600e-02
1.405255870399998164e-01
-7.758632207999986707e-02
-1.364381049599997231e-01
2.913725727999998821e-02
8.223659456000000090e-02
2.773113472000000163e-02
2.493856640000000069e-03
-6.802768159999998329e-03
-5.060064848000000309e-02
2.773085743999999936e-02
5.299308063999998847e-02
-3.137326527999999976e-02
-6.678432208000002757e-02
6.396077759999999057e-02
-5.592232799999996735e-03
7.107328928000004875e-02
1.010019238400000213e-01
5.648578480000004259e-02
-2.174447999999997230e-03
5.547229007999998629e-02
-8.065665759999993134e-03
-2.435808800000000517e-03
-1.419878417600000386e-01
3.905128319999998619e-03
-7.680845920000009541e-02
7.568217856000016008e-02
-7.400137856000008063e-02
6.634990591999996579e-02
1.129382264000000496e-01
1.037029785599999920e-01
-1.278316015999998896e-02
5.348281568000004538e-02
6.452664640000003830e-03
2.940828863999999515e-02
-1.415376987199998549e-01
1.990531327999999281e-02
3.668220080000000882e-02
-2.239290495999998742e-02
2.476774480000000500e-02
-5.178060079999999982e-02
-4.477864848000004394e-02
2.995902463999999127e-02
-4.937167328000003491e-02
-2.780433632000001848e-02
-4.984512208000001915e-02
3.597347248000002523e-02
5.760400927999999310e-02
-4.235367328000000375e-02
-1.099563999999999576e-02
2.784258480000000036e-02
5.534855280000001987e-02
-1.577323343999999586e-02
-4.623916975999999013e-02
-6.206072000000139623e-04
-8.655964911999994293e-02
-7.050636960000009057e-02
-3.992632192000000052e-02
-3.806119359999999424e-02
-3.594017696000001427e-02
6.663767360000013434e-03
7.596783231999998387e-02
1.631985065600000118e-01
1.453300911999999556e-02
-5.021288128000003098e-02
3.460262447999999658e-02
-2.888062463999999108e-02
1.036414103999999531e-01
-6.067705664000005994e-02
-2.426175199999993162e-03
-1.927544064000000223e-02
-2.716916000000002551e-02
-4.948344031999999532e-02
2.843461679999999964e-02
9.609480640000004487e-03
-4.625991840000004754e-03
-2.177040639999996453e-03
-1.344451870399998306e-01
-3.615876207999998981e-02
-6.375844928000003187e-02
6.446655296000007584e-02
-1.358243167999999106e-02
-2.513048640000003012e-03
6.531112176000000713e-02
-5.317408800000000303e-03
-6.429533552000005203e-02
-3.781827232000001954e-02
9.468063424000003336e-02
6.881984159999986195e-03
5.078059296000003026e-02
-5.126740848000001932e-02
1.872239183999999806e-02
8.736504191999995561e-02
1.024058179199999752e-01
4.453345007999999494e-02
1.141526899200000916e-01
2.099879216000003629e-02
-5.413056639999999468e-03
1.019631633600000253e-01
-5.324889279999995596e-03
-2.233426448000000800e-02
-3.801937712000001690e-02
-2.405548048000000563e-02
-9.709120159999997529e-03
4.386408959999995444e-02
6.165867215999993461e-02
-5.550733696000001438e-02
4.831168928000002805e-02
-8.554632992000010816e-02
-5.495924128000001518e-02
-2.521660896000003926e-02
-2.542884587200001101e-01
1.362280784000000078e-02
1.432419920000001581e-02
3.388395375999998793e-02
6.806178640000001834e-02
6.486276176000001226e-02
1.021544319999995783e-03
3.562852895999997493e-02
4.295684943999997923e-02
2.157976320000001141e-03
-9.911799551999996016e-02
-5.150809728000001891e-02
4.937584480000016367e-03
-3.176533712000000065e-02
5.124702432000004942e-02
-4.960752480000002115e-03
-9.743944319999996162e-03
1.007233547199999912e-01
-2.714016111999998510e-02
4.702277760000000278e-02
-2.917996191999999017e-02
-9.844168799999981553e-03
-3.464849727999999573e-02
-1.397333145599999327e-01
6.666360144000003929e-02
1.677958915199999901e-01
7.156202543999996835e-02
2.186569743999998774e-02
-6.588572288000001109e-02
1.594276800000001340e-02
-9.844728479999996854e-03
-8.207624224000006907e-02
-9.715603504000000501e-02
-2.374652127999999501e-02
3.786019295999999701e-02
1.227651398400000093e-01
9.711840320000003635e-02
-3.468496095999999695e-02
-6.838812112000008936e-02
-4.357726384000001896e-02
5.832659264000001481e-02
3.694352207999999221e-02
-5.782276975999998264e-02
1.088227872000000346e-01
-1.251501679999998673e-02
7.370527359999998543e-03
-2.605087711999998223e-01
-1.010746819200000202e-01
4.121760160000000756e-02
-1.033303139199999998e-01
-3.974274432000002993e-02
4.625209711999999501e-02
-1.303999200000003841e-02
-5.593832799999999376e-03
2.061203359999998902e-02
-3.029527312000000056e-02
-7.075256080000003056e-02
-6.067942463999995151e-02
1.373098996799998750e-01
1.888000800000000715e-02
-1.633382479999999359e-02
6.797588992000001828e-02
7.298622672000003309e-02
-1.167515537599999320e-01
-2.908398400000000543e-03
-2.876535295999999714e-02
9.840517760000004610e-02
-9.203999999999996039e-04
1.344025943999998252e-01
-2.704136896000000623e-02
-5.317742623999999196e-02
-2.819816911999999468e-02
-4.998642352000002426e-02
-9.974450704000002721e-02
-2.605368752000003507e-02
4.181671216000006075e-02
-9.078407840000001991e-03
-4.276572912000001225e-02
-7.510582447999995803e-02
8.693051199999959552e-04
1.137543264000000220e-02
-1.328186516799999550e-01
9.448328320000001085e-03
1.979231680000000451e-03
-3.452540864000001181e-02
-7.710486400000020855e-04
2.115349631999999952e-02
1.324474560000002410e-02
5.871627248000004656e-02
-1.052871232000000129e-02
-7.162968288000008676e-02
1.305683983999999902e-02
4.734206351999999812e-02
-1.017095120000000540e-02
-7.545226608000005220e-02
5.511566528000001741e-02
-1.478927343999999339e-02
8.911465824000004698e-02
-7.531189008000001295e-02
-3.040992816000000903e-02
4.872181664000002632e-02
3.210997583999999211e-02
-4.170527519999999919e-03
-9.174183392000002935e-02
2.721897696000000200e-02
-7.140304832000003710e-02
2.023740080000000635e-02
-6.572357760000008264e-02
-5.309448912000000464e-02
1.073164143999999487e-02
-6.365751199999998555e-02
-1.257144864000000160e-02
-5.272176112000004355e-02
-1.428351232000001081e-02
-5.673611295999998749e-02
1.604341961599999866e-01
-3.990433791999999785e-02
6.093844128000000526e-02
2.740478399999998153e-04
1.565298512000000072e-02
6.914903360000001185e-03
9.181843360000008225e-02
-5.501399359999988720e-03
-1.050220556799999899e-01
-6.606566720000002502e-02
1.609343231999999513e-01
3.864888144000000469e-02
7.221388992000005169e-02
1.072553632000000298e-02
-3.266696079999999863e-02
1.553030182399999515e-01
-1.783159471999997414e-01
3.839246543999996764e-02
1.204645783999999942e-01
6.900570688000005892e-02
-9.781199999999996841e-03
-1.279368748799999955e-01
2.709938495999999336e-02
3.191902464000000161e-02
-1.388783875199999518e-01
6.064104048000001912e-02
3.149403343999999244e-02
2.523544064000000225e-02
-1.390339153599999822e-01
-2.492059280000000904e-02
2.817506448000001162e-02
-2.174079519999999426e-03
3.754694496000000187e-02
1.940752831999999553e-02
-1.964966560000000126e-02
5.515640192000000747e-02
4.615606527999999847e-02
2.623192016000000515e-02
-5.518213071999998609e-02
4.470336096000002146e-02
-5.816976064000000529e-02
-1.601330352000000096e-02
-5.534933696000000902e-02
-6.378044128000005808e-02
-6.998375455999998607e-02
7.447521599999987110e-04
3.085824063999999950e-02
1.619978479999999513e-02
-1.034265545600000225e-01
3.304546639999999397e-02
2.403904047999999571e-02
3.852929728000000636e-02
1.315210262399999219e-01
4.921366543999999149e-02
-2.995688457600005350e-01
2.449860046399999769e-01
4.576629824000000984e-02
-4.243696303999998365e-02
-5.672436959999999778e-02
-3.505433583999999214e-02
-6.607837792000011146e-02
8.105429792000008737e-02
6.001408127999997150e-02
1.626127520000001173e-03
7.297644144000009492e-02
-5.351499471999997953e-02
-9.801700256000003830e-02
3.416879184000001790e-02
-7.823545024000007342e-02
-3.148973680000000108e-02
2.396608943999999422e-02
-4.398119359999999589e-02
4.564653712000001085e-02
-5.198616639999994495e-03
-6.242812112000001995e-02
-9.074414672000008508e-02
-1.341226463999999757e-02
1.323425663999999724e-02
-6.615351376000003225e-02
-1.943109631999999712e-02
-1.837382496000000004e-02
-5.196394576000001875e-02
5.049281776000000277e-02
-1.448135519999999140e-03
4.813372079999998082e-02
-4.586300848000000180e-02
-3.816580681599996971e-01
-1.812018496000000409e-02
1.727544063999999699e-02
-3.524679983999998156e-02
3.774087999999968870e-04
-8.344517759999997564e-02
1.325268048000000261e-02
-7.715899440000016651e-02
3.612237759999999825e-02
-6.068476176000001804e-02
-6.320521440000004265e-03
8.882799840000003833e-03
1.748352748799999468e-01
6.544731328000004400e-02
9.282749968000006402e-02
7.941808127999999689e-02
-4.389742480000002889e-02
-3.798432207999999366e-02
6.572198575999996240e-02
-1.066281584000000442e-02
-4.076611328000000894e-02
-5.629704207999999127e-02
2.989530336000000357e-02
1.191959999999999895e-02
-2.911543280000000733e-02
-7.201746608000005045e-02
-1.219728987200000003e-01
4.817959359999998692e-02
-5.131052896000001112e-02
7.168475376000012222e-02
1.361689600000001417e-03
-8.058005712000002041e-02
-8.281981824000007875e-02
2.341267247999999357e-02
-4.934464031999999389e-02
-2.650535936000006018e-02
3.459123360000000702e-02
-4.627528319999995796e-03
1.131857944000000532e-01
6.904348015999994814e-02
2.175044159999999643e-02
-2.012877600000000100e-02
-5.364868223999998825e-02
1.645225663999999241e-02
5.432776080000002727e-02
2.466358400000001616e-02
1.871084959999999228e-02
3.111648111999999050e-02
-2.901184159999992650e-03
4.185630416000000326e-02
3.497115200000006866e-04
-8.467124800000023176e-04
1.241301147200000177e-01
3.934540064000000004e-02
9.198192959999997032e-03
-3.096060064000000223e-02
1.405523854399998995e-01
-6.558887359999996183e-03
1.452311155199995929e-01
5.922368160000001866e-03
9.180576959999998954e-03
-3.795470416000001207e-02
7.716421664000001901e-02
-3.481025039999998544e-02
9.350499423999995841e-02
-1.642912832000000684e-02
1.487719680000002031e-03
-3.798629008000000556e-02
3.721031232000000799e-02
7.821763504000003864e-02
-6.505604144000001754e-02
-5.709095264000003944e-02
-4.315687311999999443e-02
1.645406527999999577e-02
-1.774161584000000930e-02
-3.063571136000000500e-02
-2.345391199999993619e-03
1.070579438400000166e-01
1.337245047999999770e-01
-4.009426448000003723e-02
-7.487566527999998944e-02
-7.681804144000002610e-02
6.737730351999997314e-02
6.826619263999995912e-02
7.550616096000002664e-02
2.266614511999999818e-02
2.379397144000000852e-01
3.035209711999999754e-02
4.270257696000001602e-02
2.625112815999999794e-02
1.108061647999999781e-02
-8.109899456000010942e-02
6.019215840000003218e-03
1.463888736000000176e-02
-3.301665632000000405e-02
-6.856753776000003298e-02
-8.945906080000017024e-03
1.602608143999998888e-02
-6.493862624000001915e-02
-5.513187264000004445e-02
4.841960320000001511e-03
5.239701824000000258e-02
-2.502452112000000048e-02
-3.019919360000000025e-02
-1.600609727999999926e-02
-2.825344863999999095e-02
-1.369943680000000330e-01
-2.539305664000000851e-02
-2.833484143999999427e-02
-6.023289712000004514e-02
-9.378336256000002757e-02
5.953108208000001955e-02
-1.416627951999997748e-01
1.419857712000000168e-02
-4.031562559999999490e-02
-5.576671408000000857e-02
2.682805759999999304e-02
8.321148208000005153e-02
-7.219016640000001754e-03
2.748320320000006804e-03
-2.900823839999999102e-03
3.537109632000001724e-02
2.623425663999999144e-02
-1.356795200000006189e-04
5.271261056000000472e-02
-1.901301243199999824e-01
-1.815860879999999650e-02
-1.776471248000000003e-02
-1.745028863999999874e-02
-5.978276976000001380e-02
1.102473624000000346e-01
2.636954399999999477e-02
2.139452348799999459e-01
-4.865144160000001161e-03
2.672160784000004313e-02
1.630909147199999520e-01
2.434109719999999755e-01
-2.792062448000000308e-02
-4.498041743999999648e-02
7.868772272000008894e-02
-3.493448640000001472e-03
3.785864848000000671e-02
-3.226873632000000491e-02
-4.988433792000000061e-02
1.237385663999998088e-02
2.624783999999999798e-03
5.621524144000002859e-02
-2.192103520000001325e-03
-3.436577120000005280e-03
-5.466416096000002028e-02
1.013783263999999337e-02
-5.348943359999989121e-03
-9.387980240000000365e-02
2.593927999999831417e-04
-9.280138655999999042e-02
-9.781208000000009978e-03
-2.619701679999999339e-02
-5.866629824000002547e-02
-1.815820879999999887e-02
-1.356559184000000542e-02
4.156439840000006672e-03
3.672138495999999891e-02
-5.112193008000000261e-02
8.910836159999997730e-02
1.397711553600000378e-01
1.032889385599999876e-01
2.715468832000000887e-02
6.235231999999996805e-03
8.403271392000002948e-02
3.778140080000000345e-02
7.890180224000009623e-02
-1.246431950400000849e-01
-4.219723343999998849e-02
-9.661963343999999121e-02
6.999330512000009885e-02
-9.780431679999996436e-03
3.995287519999998066e-03
-4.447911984000001845e-02
8.260469824000002403e-02
-3.009543280000000209e-02
-1.636271489599997464e-01
2.587912480000007127e-03
2.045310195199999403e-01
-8.336977119999998409e-03
6.780423839999999078e-03
-9.626796960000003067e-02
-4.403728112000000749e-02
6.466515376000007975e-02
2.715937695999998819e-02
3.460495152000000324e-02
-4.264298479999999864e-02
